{"learner":{"attributes":{},"feature_names":["era_2011_2013","era_2014_2018","era_2019_2021","era_2022_2024","era_2025_on","shot_distance","shot_angle","rebound","rush","time_since_last","distance_from_last","cross_ice_event","empty_net","last_x","last_y","wrist_shot","snap_shot","slap_shot","backhand","wrap_around","tip_in","deflected","poke","batted","between_legs","cradle","last_blocked_shot","last_shot","last_giveaway","last_hit","last_takeaway","last_faceoff","last_missed_shot","last_stop","last_penalty","last_goal"],"feature_types":[],"gradient_booster":{"model":{"cats":{"enc":[],"feature_segments":[],"sorted_idx":[]},"gbtree_model_param":{"num_parallel_tree":"1","num_trees":"1500"},"iteration_indptr":[0,1,2,3,4,5,6,7,8,9,10,11,12,13,14,15,16,17,18,19,20,21,22,23,24,25,26,27,28,29,30,31,32,33,34,35,36,37,38,39,40,41,42,43,44,45,46,47,48,49,50,51,52,53,54,55,56,57,58,59,60,61,62,63,64,65,66,67,68,69,70,71,72,73,74,75,76,77,78,79,80,81,82,83,84,85,86,87,88,89,90,91,92,93,94,95,96,97,98,99,100,101,102,103,104,105,106,107,108,109,110,111,112,113,114,115,116,117,118,119,120,121,122,123,124,125,126,127,128,129,130,131,132,133,134,135,136,137,138,139,140,141,142,143,144,145,146,147,148,149,150,151,152,153,154,155,156,157,158,159,160,161,162,163,164,165,166,167,168,169,170,171,172,173,174,175,176,177,178,179,180,181,182,183,184,185,186,187,188,189,190,191,192,193,194,195,196,197,198,199,200,201,202,203,204,205,206,207,208,209,210,211,212,213,214,215,216,217,218,219,220,221,222,223,224,225,226,227,228,229,230,231,232,233,234,235,236,237,238,239,240,241,242,243,244,245,246,247,248,249,250,251,252,253,254,255,256,257,258,259,260,261,262,263,264,265,266,267,268,269,270,271,272,273,274,275,276,277,278,279,280,281,282,283,284,285,286,287,288,289,290,291,292,293,294,295,296,297,298,299,300,301,302,303,304,305,306,307,308,309,310,311,312,313,314,315,316,317,318,319,320,321,322,323,324,325,326,327,328,329,330,331,332,333,334,335,336,337,338,339,340,341,342,343,344,345,346,347,348,349,350,351,352,353,354,355,356,357,358,359,360,361,362,363,364,365,366,367,368,369,370,371,372,373,374,375,376,377,378,379,380,381,382,383,384,385,386,387,388,389,390,391,392,393,394,395,396,397,398,399,400,401,402,403,404,405,406,407,408,409,410,411,412,413,414,415,416,417,418,419,420,421,422,423,424,425,426,427,428,429,430,431,432,433,434,435,436,437,438,439,440,441,442,443,444,445,446,447,448,449,450,451,452,453,454,455,456,457,458,459,460,461,462,463,464,465,466,467,468,469,470,471,472,473,474,475,476,477,478,479,480,481,482,483,484,485,486,487,488,489,490,491,492,493,494,495,496,497,498,499,500,501,502,503,504,505,506,507,508,509,510,511,512,513,514,515,516,517,518,519,520,521,522,523,524,525,526,527,528,529,530,531,532,533,534,535,536,537,538,539,540,541,542,543,544,545,546,547,548,549,550,551,552,553,554,555,556,557,558,559,560,561,562,563,564,565,566,567,568,569,570,571,572,573,574,575,576,577,578,579,580,581,582,583,584,585,586,587,588,589,590,591,592,593,594,595,596,597,598,599,600,601,602,603,604,605,606,607,608,609,610,611,612,613,614,615,616,617,618,619,620,621,622,623,624,625,626,627,628,629,630,631,632,633,634,635,636,637,638,639,640,641,642,643,644,645,646,647,648,649,650,651,652,653,654,655,656,657,658,659,660,661,662,663,664,665,666,667,668,669,670,671,672,673,674,675,676,677,678,679,680,681,682,683,684,685,686,687,688,689,690,691,692,693,694,695,696,697,698,699,700,701,702,703,704,705,706,707,708,709,710,711,712,713,714,715,716,717,718,719,720,721,722,723,724,725,726,727,728,729,730,731,732,733,734,735,736,737,738,739,740,741,742,743,744,745,746,747,748,749,750,751,752,753,754,755,756,757,758,759,760,761,762,763,764,765,766,767,768,769,770,771,772,773,774,775,776,777,778,779,780,781,782,783,784,785,786,787,788,789,790,791,792,793,794,795,796,797,798,799,800,801,802,803,804,805,806,807,808,809,810,811,812,813,814,815,816,817,818,819,820,821,822,823,824,825,826,827,828,829,830,831,832,833,834,835,836,837,838,839,840,841,842,843,844,845,846,847,848,849,850,851,852,853,854,855,856,857,858,859,860,861,862,863,864,865,866,867,868,869,870,871,872,873,874,875,876,877,878,879,880,881,882,883,884,885,886,887,888,889,890,891,892,893,894,895,896,897,898,899,900,901,902,903,904,905,906,907,908,909,910,911,912,913,914,915,916,917,918,919,920,921,922,923,924,925,926,927,928,929,930,931,932,933,934,935,936,937,938,939,940,941,942,943,944,945,946,947,948,949,950,951,952,953,954,955,956,957,958,959,960,961,962,963,964,965,966,967,968,969,970,971,972,973,974,975,976,977,978,979,980,981,982,983,984,985,986,987,988,989,990,991,992,993,994,995,996,997,998,999,1000,1001,1002,1003,1004,1005,1006,1007,1008,1009,1010,1011,1012,1013,1014,1015,1016,1017,1018,1019,1020,1021,1022,1023,1024,1025,1026,1027,1028,1029,1030,1031,1032,1033,1034,1035,1036,1037,1038,1039,1040,1041,1042,1043,1044,1045,1046,1047,1048,1049,1050,1051,1052,1053,1054,1055,1056,1057,1058,1059,1060,1061,1062,1063,1064,1065,1066,1067,1068,1069,1070,1071,1072,1073,1074,1075,1076,1077,1078,1079,1080,1081,1082,1083,1084,1085,1086,1087,1088,1089,1090,1091,1092,1093,1094,1095,1096,1097,1098,1099,1100,1101,1102,1103,1104,1105,1106,1107,1108,1109,1110,1111,1112,1113,1114,1115,1116,1117,1118,1119,1120,1121,1122,1123,1124,1125,1126,1127,1128,1129,1130,1131,1132,1133,1134,1135,1136,1137,1138,1139,1140,1141,1142,1143,1144,1145,1146,1147,1148,1149,1150,1151,1152,1153,1154,1155,1156,1157,1158,1159,1160,1161,1162,1163,1164,1165,1166,1167,1168,1169,1170,1171,1172,1173,1174,1175,1176,1177,1178,1179,1180,1181,1182,1183,1184,1185,1186,1187,1188,1189,1190,1191,1192,1193,1194,1195,1196,1197,1198,1199,1200,1201,1202,1203,1204,1205,1206,1207,1208,1209,1210,1211,1212,1213,1214,1215,1216,1217,1218,1219,1220,1221,1222,1223,1224,1225,1226,1227,1228,1229,1230,1231,1232,1233,1234,1235,1236,1237,1238,1239,1240,1241,1242,1243,1244,1245,1246,1247,1248,1249,1250,1251,1252,1253,1254,1255,1256,1257,1258,1259,1260,1261,1262,1263,1264,1265,1266,1267,1268,1269,1270,1271,1272,1273,1274,1275,1276,1277,1278,1279,1280,1281,1282,1283,1284,1285,1286,1287,1288,1289,1290,1291,1292,1293,1294,1295,1296,1297,1298,1299,1300,1301,1302,1303,1304,1305,1306,1307,1308,1309,1310,1311,1312,1313,1314,1315,1316,1317,1318,1319,1320,1321,1322,1323,1324,1325,1326,1327,1328,1329,1330,1331,1332,1333,1334,1335,1336,1337,1338,1339,1340,1341,1342,1343,1344,1345,1346,1347,1348,1349,1350,1351,1352,1353,1354,1355,1356,1357,1358,1359,1360,1361,1362,1363,1364,1365,1366,1367,1368,1369,1370,1371,1372,1373,1374,1375,1376,1377,1378,1379,1380,1381,1382,1383,1384,1385,1386,1387,1388,1389,1390,1391,1392,1393,1394,1395,1396,1397,1398,1399,1400,1401,1402,1403,1404,1405,1406,1407,1408,1409,1410,1411,1412,1413,1414,1415,1416,1417,1418,1419,1420,1421,1422,1423,1424,1425,1426,1427,1428,1429,1430,1431,1432,1433,1434,1435,1436,1437,1438,1439,1440,1441,1442,1443,1444,1445,1446,1447,1448,1449,1450,1451,1452,1453,1454,1455,1456,1457,1458,1459,1460,1461,1462,1463,1464,1465,1466,1467,1468,1469,1470,1471,1472,1473,1474,1475,1476,1477,1478,1479,1480,1481,1482,1483,1484,1485,1486,1487,1488,1489,1490,1491,1492,1493,1494,1495,1496,1497,1498,1499,1500],"tree_info":[0,0,0,0,0,0,0,0,0,0,0,0,0,0,0,0,0,0,0,0,0,0,0,0,0,0,0,0,0,0,0,0,0,0,0,0,0,0,0,0,0,0,0,0,0,0,0,0,0,0,0,0,0,0,0,0,0,0,0,0,0,0,0,0,0,0,0,0,0,0,0,0,0,0,0,0,0,0,0,0,0,0,0,0,0,0,0,0,0,0,0,0,0,0,0,0,0,0,0,0,0,0,0,0,0,0,0,0,0,0,0,0,0,0,0,0,0,0,0,0,0,0,0,0,0,0,0,0,0,0,0,0,0,0,0,0,0,0,0,0,0,0,0,0,0,0,0,0,0,0,0,0,0,0,0,0,0,0,0,0,0,0,0,0,0,0,0,0,0,0,0,0,0,0,0,0,0,0,0,0,0,0,0,0,0,0,0,0,0,0,0,0,0,0,0,0,0,0,0,0,0,0,0,0,0,0,0,0,0,0,0,0,0,0,0,0,0,0,0,0,0,0,0,0,0,0,0,0,0,0,0,0,0,0,0,0,0,0,0,0,0,0,0,0,0,0,0,0,0,0,0,0,0,0,0,0,0,0,0,0,0,0,0,0,0,0,0,0,0,0,0,0,0,0,0,0,0,0,0,0,0,0,0,0,0,0,0,0,0,0,0,0,0,0,0,0,0,0,0,0,0,0,0,0,0,0,0,0,0,0,0,0,0,0,0,0,0,0,0,0,0,0,0,0,0,0,0,0,0,0,0,0,0,0,0,0,0,0,0,0,0,0,0,0,0,0,0,0,0,0,0,0,0,0,0,0,0,0,0,0,0,0,0,0,0,0,0,0,0,0,0,0,0,0,0,0,0,0,0,0,0,0,0,0,0,0,0,0,0,0,0,0,0,0,0,0,0,0,0,0,0,0,0,0,0,0,0,0,0,0,0,0,0,0,0,0,0,0,0,0,0,0,0,0,0,0,0,0,0,0,0,0,0,0,0,0,0,0,0,0,0,0,0,0,0,0,0,0,0,0,0,0,0,0,0,0,0,0,0,0,0,0,0,0,0,0,0,0,0,0,0,0,0,0,0,0,0,0,0,0,0,0,0,0,0,0,0,0,0,0,0,0,0,0,0,0,0,0,0,0,0,0,0,0,0,0,0,0,0,0,0,0,0,0,0,0,0,0,0,0,0,0,0,0,0,0,0,0,0,0,0,0,0,0,0,0,0,0,0,0,0,0,0,0,0,0,0,0,0,0,0,0,0,0,0,0,0,0,0,0,0,0,0,0,0,0,0,0,0,0,0,0,0,0,0,0,0,0,0,0,0,0,0,0,0,0,0,0,0,0,0,0,0,0,0,0,0,0,0,0,0,0,0,0,0,0,0,0,0,0,0,0,0,0,0,0,0,0,0,0,0,0,0,0,0,0,0,0,0,0,0,0,0,0,0,0,0,0,0,0,0,0,0,0,0,0,0,0,0,0,0,0,0,0,0,0,0,0,0,0,0,0,0,0,0,0,0,0,0,0,0,0,0,0,0,0,0,0,0,0,0,0,0,0,0,0,0,0,0,0,0,0,0,0,0,0,0,0,0,0,0,0,0,0,0,0,0,0,0,0,0,0,0,0,0,0,0,0,0,0,0,0,0,0,0,0,0,0,0,0,0,0,0,0,0,0,0,0,0,0,0,0,0,0,0,0,0,0,0,0,0,0,0,0,0,0,0,0,0,0,0,0,0,0,0,0,0,0,0,0,0,0,0,0,0,0,0,0,0,0,0,0,0,0,0,0,0,0,0,0,0,0,0,0,0,0,0,0,0,0,0,0,0,0,0,0,0,0,0,0,0,0,0,0,0,0,0,0,0,0,0,0,0,0,0,0,0,0,0,0,0,0,0,0,0,0,0,0,0,0,0,0,0,0,0,0,0,0,0,0,0,0,0,0,0,0,0,0,0,0,0,0,0,0,0,0,0,0,0,0,0,0,0,0,0,0,0,0,0,0,0,0,0,0,0,0,0,0,0,0,0,0,0,0,0,0,0,0,0,0,0,0,0,0,0,0,0,0,0,0,0,0,0,0,0,0,0,0,0,0,0,0,0,0,0,0,0,0,0,0,0,0,0,0,0,0,0,0,0,0,0,0,0,0,0,0,0,0,0,0,0,0,0,0,0,0,0,0,0,0,0,0,0,0,0,0,0,0,0,0,0,0,0,0,0,0,0,0,0,0,0,0,0,0,0,0,0,0,0,0,0,0,0,0,0,0,0,0,0,0,0,0,0,0,0,0,0,0,0,0,0,0,0,0,0,0,0,0,0,0,0,0,0,0,0,0,0,0,0,0,0,0,0,0,0,0,0,0,0,0,0,0,0,0,0,0,0,0,0,0,0,0,0,0,0,0,0,0,0,0,0,0,0,0,0,0,0,0,0,0,0,0,0,0,0,0,0,0,0,0,0,0,0,0,0,0,0,0,0,0,0,0,0,0,0,0,0,0,0,0,0,0,0,0,0,0,0,0,0,0,0,0,0,0,0,0,0,0,0,0,0,0,0,0,0,0,0,0,0,0,0,0,0,0,0,0,0,0,0,0,0,0,0,0,0,0,0,0,0,0,0,0,0,0,0,0,0,0,0,0,0,0,0,0,0,0,0,0,0,0,0,0,0,0,0,0,0,0,0,0,0,0,0,0,0,0,0,0,0,0,0,0,0,0,0,0,0,0,0,0,0,0,0,0,0,0,0,0,0,0,0,0,0,0,0,0,0,0,0,0,0,0,0,0,0,0,0,0,0,0,0,0,0,0,0,0,0,0,0,0,0,0,0,0,0,0,0,0,0,0,0,0,0,0,0,0,0,0,0,0,0,0,0,0,0,0,0,0,0,0,0,0,0,0,0,0,0,0,0,0,0,0,0,0,0,0,0,0,0,0,0,0,0,0,0,0,0,0,0,0,0,0,0,0,0,0,0,0,0,0,0,0,0,0,0,0,0,0,0,0,0,0,0,0,0,0,0,0,0,0,0,0,0,0,0,0,0,0,0,0,0,0,0,0,0,0,0,0,0,0,0,0,0,0,0,0,0,0,0,0,0,0,0,0,0,0,0,0,0,0,0,0,0,0,0,0,0,0,0,0,0,0,0,0,0,0,0,0,0,0,0,0,0,0,0,0,0,0,0,0,0,0,0,0,0,0,0,0,0,0,0,0,0,0,0,0,0,0,0,0,0,0,0,0,0,0,0,0,0,0,0,0,0,0,0,0,0,0,0,0,0,0,0,0,0,0,0,0,0,0,0,0,0,0,0,0,0,0,0,0,0,0,0,0,0,0,0,0,0,0,0,0,0,0,0,0,0,0,0,0,0,0,0,0,0,0,0,0,0,0,0,0,0,0,0,0,0,0,0,0],"trees":[{"base_weights":[-4.082934E-3,7.4742687E-1,-5.086464E-1,1.4797635E0,3.82855E-1,-1.2820901E-1,-6.5203625E-1,9.4874185E-1,2.076915E0,2.7651143E-1,1.3792278E0,-2.2327076E-1,7.413768E-1,-6.818983E-1,-2.1223068E-2,4.1831605E-2,1.2300812E-1,1.3292044E-1,4.0141884E-2,-1.3348627E-3,4.5147616E-2,1.0483732E-1,6.6885605E-2,-2.2486815E-2,2.2468213E-2,6.4195655E-2,2.8436301E-2,-4.6062533E-2,-2.5176173E-2,-2.8316904E-2,1.461479E-2],"categories":[],"categories_nodes":[],"categories_segments":[],"categories_sizes":[],"default_left":[0,0,0,0,0,0,0,0,0,0,0,0,0,0,0,0,0,0,0,0,0,0,0,0,0,0,0,0,0,0,0],"id":0,"left_children":[1,3,5,7,9,11,13,15,17,19,21,23,25,27,29,-1,-1,-1,-1,-1,-1,-1,-1,-1,-1,-1,-1,-1,-1,-1,-1],"loss_changes":[1.791422E4,5.066334E3,1.5418613E3,1.9980479E3,1.342285E3,6.39879E2,3.866875E2,9.240127E2,5.769248E2,1.6282697E3,1.1698047E2,6.319871E2,6.652188E1,4.408418E2,1.10982956E2,0E0,0E0,0E0,0E0,0E0,0E0,0E0,0E0,0E0,0E0,0E0,0E0,0E0,0E0,0E0,0E0],"parents":[2147483647,0,0,1,1,2,2,3,3,4,4,5,5,6,6,7,7,8,8,9,9,10,10,11,11,12,12,13,13,14,14],"right_children":[2,4,6,8,10,12,14,16,18,20,22,24,26,28,30,-1,-1,-1,-1,-1,-1,-1,-1,-1,-1,-1,-1,-1,-1,-1,-1],"split_conditions":[2.62E1,4E0,3.71E1,1E0,1E0,1E0,8.86E1,1E0,1E0,1E0,1.71E1,1E0,3.22E1,1E0,1E0,4.1831605E-2,1.2300812E-1,1.3292044E-1,4.0141884E-2,-1.3348627E-3,4.5147616E-2,1.0483732E-1,6.6885605E-2,-2.2486815E-2,2.2468213E-2,6.4195655E-2,2.8436301E-2,-4.6062533E-2,-2.5176173E-2,-2.8316904E-2,1.461479E-2],"split_indices":[5,9,5,15,16,17,5,16,29,15,5,16,5,17,15,0,0,0,0,0,0,0,0,0,0,0,0,0,0,0,0],"split_type":[0,0,0,0,0,0,0,0,0,0,0,0,0,0,0,0,0,0,0,0,0,0,0,0,0,0,0,0,0,0,0],"sum_hessian":[4.7242086E4,1.897691E4,2.8265178E4,6.306207E3,1.2670703E4,7.7376865E3,2.0527492E4,3.339299E3,2.9669082E3,1.1449922E4,1.2207808E3,6.975842E3,7.618448E2,1.9599586E4,9.2790533E2,2.7197627E3,6.195364E2,2.700788E3,2.6612012E2,7.034949E3,4.414973E3,5.0807852E2,7.127023E2,5.565521E3,1.4103206E3,3.4051636E2,4.213284E2,1.4766697E4,4.8328887E3,3.4311E2,5.8479535E2],"tree_param":{"num_deleted":"0","num_feature":"36","num_nodes":"31","size_leaf_vector":"1"}},{"base_weights":[-8.5910794E-4,-1.22097835E-1,1.4598051E0,-1.7820469E-1,9.178166E-1,1.7398614E0,6.3133135E-2,-3.5156438E-1,7.2464995E-2,1.2696042E0,-2.077066E-2,2.1082098E0,8.433959E-1,1.6054372E-1,-3.3024848E-1,-3.1987503E-2,1.817296E-2,1.3731982E-2,-1.4145795E-2,9.229718E-2,4.681164E-2,2.3038848E-3,-2.8346786E-2,9.020342E-2,1.5803008E-1,3.227898E-2,6.774769E-2,3.54454E-3,3.659234E-2,-1.3587706E-2,-4.7936324E-2],"categories":[],"categories_nodes":[],"categories_segments":[],"categories_sizes":[],"default_left":[0,0,0,0,0,0,0,0,0,0,0,0,0,0,0,0,0,0,0,0,0,0,0,0,0,0,0,0,0,0,0],"id":1,"left_children":[1,3,5,7,9,11,13,15,17,19,21,23,25,27,29,-1,-1,-1,-1,-1,-1,-1,-1,-1,-1,-1,-1,-1,-1,-1,-1],"loss_changes":[8.370059E3,2.5465293E3,1.4167871E3,1.7994956E3,7.377457E2,9.94583E2,2.327747E1,2.908868E3,8.16225E2,2.1250293E2,1.6323133E1,6.7571094E2,7.622174E1,2.2142677E1,5.686404E0,0E0,0E0,0E0,0E0,0E0,0E0,0E0,0E0,0E0,0E0,0E0,0E0,0E0,0E0,0E0,0E0],"parents":[2147483647,0,0,1,1,2,2,3,3,4,4,5,5,6,6,7,7,8,8,9,9,10,10,11,11,12,12,13,13,14,14],"right_children":[2,4,6,8,10,12,14,16,18,20,22,24,26,28,30,-1,-1,-1,-1,-1,-1,-1,-1,-1,-1,-1,-1,-1,-1,-1,-1],"split_conditions":[1E0,1E0,1E0,1E0,1E0,1E0,3.98E1,1E0,1E0,1E0,1E0,1E0,1E0,1E0,6.07E1,-3.1987503E-2,1.817296E-2,1.3731982E-2,-1.4145795E-2,9.229718E-2,4.681164E-2,2.3038848E-3,-2.8346786E-2,9.020342E-2,1.5803008E-1,3.227898E-2,6.774769E-2,3.54454E-3,3.659234E-2,-1.3587706E-2,-4.7936324E-2],"split_indices":[7,20,4,15,4,3,10,16,31,3,8,15,15,16,10,0,0,0,0,0,0,0,0,0,0,0,0,0,0,0,0],"split_type":[0,0,0,0,0,0,0,0,0,0,0,0,0,0,0,0,0,0,0,0,0,0,0,0,0,0,0,0,0,0,0],"sum_hessian":[4.7262684E4,4.3641266E4,3.6214163E3,4.1407996E4,2.233271E3,3.0163428E3,6.0507336E2,2.447856E4,1.6929436E4,1.6241703E3,6.091006E2,2.1369434E3,8.793995E2,4.8545508E2,1.1961828E2,1.9162553E4,5.3160063E3,1.1230901E4,5.6985337E3,1.0471503E3,5.770201E2,5.393603E2,6.974027E1,9.954135E2,1.1415298E3,4.264545E2,4.5294495E2,3.969473E2,8.850777E1,9.914648E1,2.04718E1],"tree_param":{"num_deleted":"0","num_feature":"36","num_nodes":"31","size_leaf_vector":"1"}},{"base_weights":[7.599872E-4,-4.971033E-2,1.0923761E1,5.458588E-1,-6.3370997E-1,1.2417625E1,6.9464574E0,3.864243E-1,1.4377172E0,-3.850721E-1,-7.7139E-1,7.996851E-1,6.384108E-1,6.0364634E-1,5.069714E0,5.5860672E-2,1.2148645E-2,1.01421334E-1,7.6477546E-3,-2.9177649E-2,1.3779556E-2,-5.2579474E-2,-2.855909E-2,3.4294412E-1,2.178941E-1],"categories":[],"categories_nodes":[],"categories_segments":[],"categories_sizes":[],"default_left":[0,0,0,0,0,0,0,0,0,0,0,0,0,0,0,0,0,0,0,0,0,0,0,0,0],"id":2,"left_children":[1,3,5,7,9,11,13,15,17,19,21,-1,-1,-1,23,-1,-1,-1,-1,-1,-1,-1,-1,-1,-1],"loss_changes":[2.6082371E4,1.638027E4,1.2066289E3,3.3149111E3,8.136992E2,1.12125E2,3.0952417E2,1.9814678E3,1.1701875E3,5.2755225E2,4.7395215E2,0E0,0E0,0E0,1.6875366E1,0E0,0E0,0E0,0E0,0E0,0E0,0E0,0E0,0E0,0E0],"parents":[2147483647,0,0,1,1,2,2,3,3,4,4,5,5,6,6,7,7,8,8,9,9,10,10,14,14],"right_children":[2,4,6,8,10,12,14,16,18,20,22,-1,-1,-1,24,-1,-1,-1,-1,-1,-1,-1,-1,-1,-1],"split_conditions":[1E0,3.11E1,1E0,1E0,4.34E1,1E0,6.59E1,1.12E1,1E0,1E0,1E0,7.996851E-1,6.384108E-1,6.0364634E-1,1.467E2,5.5860672E-2,1.2148645E-2,1.01421334E-1,7.6477546E-3,-2.9177649E-2,1.3779556E-2,-5.2579474E-2,-2.855909E-2,3.4294412E-1,2.178941E-1],"split_indices":[12,5,4,7,5,3,5,5,4,17,17,0,0,0,5,0,0,0,0,0,0,0,0,0,0],"split_type":[0,0,0,0,0,0,0,0,0,0,0,0,0,0,0,0,0,0,0,0,0,0,0,0,0],"sum_hessian":[4.730977E4,4.7093168E4,2.1660107E2,2.3315666E4,2.3777502E4,1.5591698E2,6.068411E1,1.978093E4,3.5347358E3,8.475433E3,1.5302069E4,9.880674E1,5.711023E1,2.1178766E1,3.950534E1,4.993445E3,1.4787485E4,2.9631099E3,5.716258E2,7.2773486E3,1.1980837E3,1.1289735E4,4.012334E3,2.5207594E1,1.4297749E1],"tree_param":{"num_deleted":"0","num_feature":"36","num_nodes":"25","size_leaf_vector":"1"}},{"base_weights":[-3.0670788E-3,5.766147E-1,-4.94003E-1,5.5089504E-1,3.890423E-1,-5.6026334E-1,5.727564E0,4.038445E-1,1.2570374E0,-2.2756878E-1,-7.292807E-1,6.2815075E0,4.108867E0,3.6029585E-2,-3.3499107E-3,8.773659E-2,6.878566E-3,-1.9536309E-2,2.955293E-2,-5.0061796E-2,-2.5410766E-2,4.0090656E-1,3.2736024E-1,3.1387594E-1,1.8010303E-1],"categories":[],"categories_nodes":[],"categories_segments":[],"categories_sizes":[],"default_left":[0,0,0,0,0,0,0,0,0,0,0,0,0,0,0,0,0,0,0,0,0,0,0,0,0],"id":3,"left_children":[1,3,5,7,-1,9,11,13,15,17,19,21,23,-1,-1,-1,-1,-1,-1,-1,-1,-1,-1,-1,-1],"loss_changes":[1.3472918E4,3.2948096E3,1.0570306E4,2.2440552E3,0E0,1.4260801E3,2.1647656E2,1.6173562E3,8.732329E2,6.034956E2,5.4005176E2,2.9438965E1,7.35011E1,0E0,0E0,0E0,0E0,0E0,0E0,0E0,0E0,0E0,0E0,0E0,0E0],"parents":[2147483647,0,0,1,1,2,2,3,3,5,5,6,6,7,7,8,8,9,9,10,10,11,11,12,12],"right_children":[2,4,6,8,-1,10,12,14,16,18,20,22,24,-1,-1,-1,-1,-1,-1,-1,-1,-1,-1,-1,-1],"split_conditions":[2.78E1,1E0,1E0,1E0,3.890423E-1,4.02E1,1E0,4.62E1,1E0,1E0,1E0,1E0,9.73E1,3.6029585E-2,-3.3499107E-3,8.773659E-2,6.878566E-3,-1.9536309E-2,2.955293E-2,-5.0061796E-2,-2.5410766E-2,4.0090656E-1,3.2736024E-1,3.1387594E-1,1.8010303E-1],"split_indices":[5,12,12,7,0,5,4,6,4,17,17,3,5,0,0,0,0,0,0,0,0,0,0,0,0],"split_type":[0,0,0,0,0,0,0,0,0,0,0,0,0,0,0,0,0,0,0,0,0,0,0,0,0],"sum_hessian":[4.734007E4,2.1707895E4,2.5632176E4,2.161488E4,9.30133E1,2.5362967E4,2.692082E2,1.789079E4,3.724092E3,8.545102E3,1.6817865E4,1.9842383E2,7.078436E1,1.2530123E4,5.3606655E3,3.1566907E3,5.674015E2,7.521656E3,1.0234458E3,1.2515101E4,4.3027646E3,1.2885205E2,6.957177E1,3.330036E1,3.7483997E1],"tree_param":{"num_deleted":"0","num_feature":"36","num_nodes":"25","size_leaf_vector":"1"}},{"base_weights":[-1.425568E-3,4.8297313E-1,-5.293291E-1,9.562987E-1,2.3591875E-1,-5.9984463E-1,4.2266874E0,1.176483E0,4.2220986E-1,2.0681864E-1,2.9003903E-1,-3.6221942E-1,-7.366524E-1,4.522295E0,3.3187947E0,4.9545284E-2,9.2553005E-2,3.7657052E-2,-4.518105E-3,2.1306286E-2,-1.5845152E-2,-1.5502712E-2,-4.6281394E-2,-4.100643E-2,-5.2528605E-2,2.8233695E-1,2.4350603E-1,3.0515684E-2,2.36131E-1],"categories":[],"categories_nodes":[],"categories_segments":[],"categories_sizes":[],"default_left":[0,0,0,0,0,0,0,0,0,0,0,0,0,0,0,0,0,0,0,0,0,0,0,0,0,0,0,0,0],"id":4,"left_children":[1,3,5,7,9,11,13,15,17,19,-1,21,23,25,27,-1,-1,-1,-1,-1,-1,-1,-1,-1,-1,-1,-1,-1,-1],"loss_changes":[1.2101904E4,2.8857534E3,7.597343E3,9.948047E2,2.1689229E3,7.251992E2,7.3819336E1,7.680869E2,2.5268967E2,1.1254658E3,0E0,3.4629236E2,1.0401318E2,1.9003906E0,1.4540619E2,0E0,0E0,0E0,0E0,0E0,0E0,0E0,0E0,0E0,0E0,0E0,0E0,0E0,0E0],"parents":[2147483647,0,0,1,1,2,2,3,3,4,4,5,5,6,6,7,7,8,8,9,9,11,11,12,12,13,13,14,14],"right_children":[2,4,6,8,10,12,14,16,18,20,-1,22,24,26,28,-1,-1,-1,-1,-1,-1,-1,-1,-1,-1,-1,-1,-1,-1],"split_conditions":[3.11E1,4E0,1E0,4.62E1,1E0,4.34E1,1E0,1E0,7.26E1,5.16E1,2.9003903E-1,5.08E1,6.04E1,1.234E2,4E0,4.9545284E-2,9.2553005E-2,3.7657052E-2,-4.518105E-3,2.1306286E-2,-1.5845152E-2,-1.5502712E-2,-4.6281394E-2,-4.100643E-2,-5.2528605E-2,2.8233695E-1,2.4350603E-1,3.0515684E-2,2.36131E-1],"split_indices":[5,9,12,6,12,5,4,15,6,6,0,6,5,5,9,0,0,0,0,0,0,0,0,0,0,0,0,0,0],"split_type":[0,0,0,0,0,0,0,0,0,0,0,0,0,0,0,0,0,0,0,0,0,0,0,0,0,0,0,0,0],"sum_hessian":[4.73236E4,2.4678738E4,2.2644861E4,8.462591E3,1.6216147E4,2.2314883E4,3.299797E2,5.9913745E3,2.4712163E3,1.6115203E4,1.009445E2,8.15459E3,1.4160293E4,2.4592584E2,8.405388E1,3.061455E3,2.9299197E3,1.7488903E3,7.22326E2,1.225606E4,3.8591433E3,6.5051777E3,1.6494122E3,1.0240859E4,3.9194329E3,1.6971059E2,7.621526E1,1.5455033E1,6.859885E1],"tree_param":{"num_deleted":"0","num_feature":"36","num_nodes":"29","size_leaf_vector":"1"}},{"base_weights":[-7.506895E-3,4.302906E-1,-5.199731E-1,7.983738E-1,1.7457595E-1,-5.901791E-1,3.4140933E0,5.186301E-1,1.0899049E0,1.4938465E-1,2.301364E-1,-3.6298227E-1,-7.327527E-1,3.6741135E0,2.5958674E0,1.8926572E-2,7.7360384E-2,7.3401004E-2,2.141707E-2,3.3080534E-3,5.0976787E-2,-2.7964173E-2,1.2279881E-2,-5.082288E-2,-2.5720276E-2,2.343626E-1,1.9226447E-1,3.2049462E-2,1.797715E-1],"categories":[],"categories_nodes":[],"categories_segments":[],"categories_sizes":[],"default_left":[0,0,0,0,0,0,0,0,0,0,0,0,0,0,0,0,0,0,0,0,0,0,0,0,0,0,0,0,0],"id":5,"left_children":[1,3,5,7,9,11,13,15,17,19,-1,21,23,25,27,-1,-1,-1,-1,-1,-1,-1,-1,-1,-1,-1,-1,-1,-1],"loss_changes":[1.060953E4,2.4002432E3,6.0193223E3,8.5199365E2,1.3873716E3,6.9310156E2,7.176123E1,8.353141E2,5.0016992E2,9.864441E2,0E0,4.8317285E2,4.5670264E2,1.8810791E1,7.726782E1,0E0,0E0,0E0,0E0,0E0,0E0,0E0,0E0,0E0,0E0,0E0,0E0,0E0,0E0],"parents":[2147483647,0,0,1,1,2,2,3,3,4,4,5,5,6,6,7,7,8,8,9,9,11,11,12,12,13,13,14,14],"right_children":[2,4,6,8,10,12,14,16,18,20,-1,22,24,26,28,-1,-1,-1,-1,-1,-1,-1,-1,-1,-1,-1,-1,-1,-1],"split_conditions":[3.14E1,5E0,1E0,1E0,1E0,4.43E1,1E0,1E0,6.14E1,1E0,2.301364E-1,1E0,1E0,1E0,4E0,1.8926572E-2,7.7360384E-2,7.3401004E-2,2.141707E-2,3.3080534E-3,5.0976787E-2,-2.7964173E-2,1.2279881E-2,-5.082288E-2,-2.5720276E-2,2.343626E-1,1.9226447E-1,3.2049462E-2,1.797715E-1],"split_indices":[5,9,12,15,12,5,4,16,6,16,0,17,17,3,9,0,0,0,0,0,0,0,0,0,0,0,0,0,0],"split_type":[0,0,0,0,0,0,0,0,0,0,0,0,0,0,0,0,0,0,0,0,0,0,0,0,0,0,0,0,0],"sum_hessian":[4.728673E4,2.5501271E4,2.1785457E4,1.0452916E4,1.5048355E4,2.1404334E4,3.8112408E2,5.335716E3,5.1172E3,1.4946551E4,1.01805435E2,8.254309E3,1.3150025E4,2.86567E2,9.4557106E1,4.2236235E3,1.112092E3,4.3284688E3,7.887314E2,1.3174366E4,1.7721844E3,6.9858286E3,1.2684796E3,9.556303E3,3.5937227E3,1.8694283E2,9.962417E1,1.5754449E1,7.880266E1],"tree_param":{"num_deleted":"0","num_feature":"36","num_nodes":"29","size_leaf_vector":"1"}},{"base_weights":[-4.6600965E-3,-4.391483E-2,3.0633104E0,-1.4210467E-1,8.3183783E-1,3.2216103E0,2.4910846E0,-1.9488904E-1,6.868932E-1,9.7606134E-1,-4.258562E-2,2.0010139E-1,2.9843962E0,2.137016E0,3.1626723E0,-1.5969135E-2,1.6200012E-2,5.7878792E-2,-5.473596E-3,7.141237E-2,2.5216734E-2,6.303542E-3,-3.6165755E-2,1.6612741E-1,1.9867645E-1,9.036294E-2,1.458857E-1,2.0934853E-1,1.370614E-1],"categories":[],"categories_nodes":[],"categories_segments":[],"categories_sizes":[],"default_left":[0,0,0,0,0,0,0,0,0,0,0,0,0,0,0,0,0,0,0,0,0,0,0,0,0,0,0,0,0],"id":6,"left_children":[1,3,5,7,9,11,13,15,17,19,21,-1,23,25,27,-1,-1,-1,-1,-1,-1,-1,-1,-1,-1,-1,-1,-1,-1],"loss_changes":[5.678522E3,4.003412E3,4.5933105E1,1.8319644E3,5.919768E2,2.5083008E0,2.498352E1,1.3039651E3,5.417329E2,4.790464E2,5.510571E1,0E0,2.0610352E0,1.3148132E1,4.645874E0,0E0,0E0,0E0,0E0,0E0,0E0,0E0,0E0,0E0,0E0,0E0,0E0,0E0,0E0],"parents":[2147483647,0,0,1,1,2,2,3,3,4,4,5,5,6,6,7,7,8,8,9,9,10,10,12,12,13,13,14,14],"right_children":[2,4,6,8,10,12,14,16,18,20,22,-1,24,26,28,-1,-1,-1,-1,-1,-1,-1,-1,-1,-1,-1,-1,-1,-1],"split_conditions":[1E0,1E0,1E0,1E0,1E0,1E0,9.95E1,1E0,1E0,1E0,6.41E1,2.0010139E-1,9.95E1,-3.6E1,3.11E1,-1.5969135E-2,1.6200012E-2,5.7878792E-2,-5.473596E-3,7.141237E-2,2.5216734E-2,6.303542E-3,-3.6165755E-2,1.6612741E-1,1.9867645E-1,9.036294E-2,1.458857E-1,2.0934853E-1,1.370614E-1],"split_indices":[12,7,4,20,4,3,10,16,4,3,6,0,10,13,6,0,0,0,0,0,0,0,0,0,0,0,0,0,0],"split_type":[0,0,0,0,0,0,0,0,0,0,0,0,0,0,0,0,0,0,0,0,0,0,0,0,0,0,0,0,0],"sum_hessian":[4.7149016E4,4.6554336E4,5.946778E2,4.186163E4,4.6927095E3,4.6218848E2,1.3248933E2,3.935647E4,2.5051604E3,4.0282E3,6.645095E2,3.038553E2,1.5833316E2,8.949081E1,4.299852E1,3.412574E4,5.2307314E3,1.8459872E3,6.591731E2,2.9069868E3,1.1212131E3,5.265423E2,1.379672E2,1.0111137E2,5.7221798E1,3.041745E1,5.9073357E1,2.9179838E1,1.3818681E1],"tree_param":{"num_deleted":"0","num_feature":"36","num_nodes":"29","size_leaf_vector":"1"}},{"base_weights":[-4.8135696E-3,3.9151195E-1,-4.980465E-1,7.2693884E-1,1.7907152E-1,-5.6459713E-1,2.5104892E0,9.092428E-1,2.982561E-1,-5.5206362E-2,4.9801332E-1,-6.649802E-1,-2.27742E-1,2.7013817E0,1.914453E0,1.4372705E-1,5.070261E-2,1.5075608E-3,3.9766215E-2,-8.388794E-3,7.061394E-2,5.122552E-2,-9.547091E-5,-2.2954186E-2,-4.773812E-2,1.0162192E-2,-2.5437057E-2,1.7308253E-1,1.415732E-1,1.853857E-2,1.336876E-1],"categories":[],"categories_nodes":[],"categories_segments":[],"categories_sizes":[],"default_left":[0,0,0,0,0,0,0,0,0,0,0,0,0,0,0,0,0,0,0,0,0,0,0,0,0,0,0,0,0,0,0],"id":7,"left_children":[1,3,5,7,9,11,13,15,17,19,21,23,25,27,29,-1,-1,-1,-1,-1,-1,-1,-1,-1,-1,-1,-1,-1,-1,-1,-1],"loss_changes":[9.198396E3,1.8590469E3,4.198939E3,7.903447E2,1.1937051E3,6.934404E2,4.6472168E1,6.7517725E2,3.0065732E2,9.603477E2,1.2024039E3,5.827627E2,3.6711304E2,1.4584961E1,5.6489014E1,0E0,0E0,0E0,0E0,0E0,0E0,0E0,0E0,0E0,0E0,0E0,0E0,0E0,0E0,0E0,0E0],"parents":[2147483647,0,0,1,1,2,2,3,3,4,4,5,5,6,6,7,7,8,8,9,9,10,10,11,11,12,12,13,13,14,14],"right_children":[2,4,6,8,10,12,14,16,18,20,22,24,26,28,30,-1,-1,-1,-1,-1,-1,-1,-1,-1,-1,-1,-1,-1,-1,-1,-1],"split_conditions":[3.14E1,1.25E1,1E0,4.62E1,1E0,1E0,1E0,5.4E0,1E0,1E0,3.93E1,4.05E1,4.7E1,1E0,4E0,1.4372705E-1,5.070261E-2,1.5075608E-3,3.9766215E-2,-8.388794E-3,7.061394E-2,5.122552E-2,-9.547091E-5,-2.2954186E-2,-4.773812E-2,1.0162192E-2,-2.5437057E-2,1.7308253E-1,1.415732E-1,1.853857E-2,1.336876E-1],"split_indices":[5,5,12,6,15,17,4,5,15,17,6,5,5,3,9,0,0,0,0,0,0,0,0,0,0,0,0,0,0,0,0],"split_type":[0,0,0,0,0,0,0,0,0,0,0,0,0,0,0,0,0,0,0,0,0,0,0,0,0,0,0,0,0,0,0],"sum_hessian":[4.7053246E4,2.60897E4,2.0963547E4,1.0115573E4,1.5974125E4,2.051065E4,4.528957E2,7.0965396E3,3.0190337E3,9.209867E3,6.7642573E3,1.5800976E4,4.7096753E3,3.4035727E2,1.12538414E2,2.923501E2,6.8041895E3,1.7264646E3,1.292569E3,8.618906E3,5.909611E2,3.9505464E3,2.8137112E3,4.9991875E3,1.0801788E4,1.557517E3,3.1521582E3,2.166994E2,1.2365788E2,1.8718176E1,9.382024E1],"tree_param":{"num_deleted":"0","num_feature":"36","num_nodes":"31","size_leaf_vector":"1"}},{"base_weights":[-6.1419033E-3,3.7915128E-1,-4.603807E-1,6.675839E-1,1.6249354E-1,-5.2445227E-1,2.2421718E0,2.6707034E0,6.376297E-1,1.4087892E-1,1.677433E-1,-2.3429789E-1,-6.6601706E-1,2.4311922E0,1.6517358E0,9.025184E-2,2.3779382E-1,4.2851526E-2,2.4048297E-3,3.4640175E-3,4.5575455E-2,-1.9093566E-2,8.273683E-3,-3.6279216E-2,-4.9737133E-2,1.5573435E-1,1.2614615E-1,2.2220703E-2,1.1290798E-1],"categories":[],"categories_nodes":[],"categories_segments":[],"categories_sizes":[],"default_left":[0,0,0,0,0,0,0,0,0,0,0,0,0,0,0,0,0,0,0,0,0,0,0,0,0,0,0,0,0],"id":8,"left_children":[1,3,5,7,9,11,13,15,17,19,-1,21,23,25,27,-1,-1,-1,-1,-1,-1,-1,-1,-1,-1,-1,-1,-1,-1],"loss_changes":[8.230347E3,1.5899321E3,3.738287E3,6.531533E2,8.266732E2,8.658511E2,5.1787354E1,2.3601038E2,4.9198584E2,7.4145776E2,0E0,2.160488E2,1.4116748E2,1.48967285E1,3.596826E1,0E0,0E0,0E0,0E0,0E0,0E0,0E0,0E0,0E0,0E0,0E0,0E0,0E0,0E0],"parents":[2147483647,0,0,1,1,2,2,3,3,4,4,5,5,6,6,7,7,8,8,9,9,11,11,12,12,13,13,14,14],"right_children":[2,4,6,8,10,12,14,16,18,20,-1,22,24,26,28,-1,-1,-1,-1,-1,-1,-1,-1,-1,-1,-1,-1,-1,-1],"split_conditions":[2.98E1,5E0,1E0,4.5E0,1E0,4.05E1,1E0,2E0,1E0,1E0,1.677433E-1,1E0,5.95E1,1E0,4E0,9.025184E-2,2.3779382E-1,4.2851526E-2,2.4048297E-3,3.4640175E-3,4.5575455E-2,-1.9093566E-2,8.273683E-3,-3.6279216E-2,-4.9737133E-2,1.5573435E-1,1.2614615E-1,2.2220703E-2,1.1290798E-1],"split_indices":[5,9,12,5,12,5,4,9,29,16,0,16,5,3,9,0,0,0,0,0,0,0,0,0,0,0,0,0,0],"split_type":[0,0,0,0,0,0,0,0,0,0,0,0,0,0,0,0,0,0,0,0,0,0,0,0,0,0,0,0,0],"sum_hessian":[4.7024492E4,2.5443252E4,2.158124E4,1.0912952E4,1.4530299E4,2.1082232E4,4.990074E2,1.5948639E2,1.0753466E4,1.4413044E4,1.17254745E2,6.9139336E3,1.4168299E4,3.756351E2,1.233723E2,8.496721E1,7.451918E1,9.531966E3,1.2215006E3,1.2706571E4,1.7064725E3,5.641858E3,1.2720756E3,1.0295567E4,3.8727317E3,2.458256E2,1.2980948E2,1.917619E1,1.0419611E2],"tree_param":{"num_deleted":"0","num_feature":"36","num_nodes":"29","size_leaf_vector":"1"}},{"base_weights":[-7.915341E-3,4.2207286E-1,-3.733149E-1,6.720322E-1,2.0912701E-1,-4.2697963E-1,2.0500257E0,8.1863093E-1,2.949328E-1,3.301561E-1,-2.0393115E-1,-1.5125346E-1,-6.4355683E-1,2.2189076E0,1.5252075E0,3.358378E-2,5.9466776E-2,8.0824055E-2,1.4152696E-2,5.376003E-2,1.2551485E-2,6.8319337E-3,-1.8669758E-2,-1.5052784E-3,-3.6308736E-2,-4.5892928E-2,-1.8796932E-2,1.4234824E-1,1.2290588E-1,3.486858E-2,1.0783719E-1],"categories":[],"categories_nodes":[],"categories_segments":[],"categories_sizes":[],"default_left":[0,0,0,0,0,0,0,0,0,0,0,0,0,0,0,0,0,0,0,0,0,0,0,0,0,0,0,0,0,0,0],"id":9,"left_children":[1,3,5,7,9,11,13,15,17,19,21,23,25,27,29,-1,-1,-1,-1,-1,-1,-1,-1,-1,-1,-1,-1,-1,-1,-1,-1],"loss_changes":[7.3710625E3,1.147044E3,3.299147E3,5.4783154E2,5.819391E2,1.4816553E3,4.533203E1,3.1821094E2,1.7221466E2,6.1598096E2,8.99391E1,6.2517206E2,5.566216E2,5.968506E0,3.414792E1,0E0,0E0,0E0,0E0,0E0,0E0,0E0,0E0,0E0,0E0,0E0,0E0,0E0,0E0,0E0,0E0],"parents":[2147483647,0,0,1,1,2,2,3,3,4,4,5,5,6,6,7,7,8,8,9,9,10,10,11,11,12,12,13,13,14,14],"right_children":[2,4,6,8,10,12,14,16,18,20,22,24,26,28,30,-1,-1,-1,-1,-1,-1,-1,-1,-1,-1,-1,-1,-1,-1,-1,-1],"split_conditions":[2.42E1,5E0,1E0,4.62E1,5.16E1,4.02E1,1E0,2E0,5.1E0,9.2E0,9.1E0,5.08E1,1E0,8.25E1,5E0,3.358378E-2,5.9466776E-2,8.0824055E-2,1.4152696E-2,5.376003E-2,1.2551485E-2,6.8319337E-3,-1.8669758E-2,-1.5052784E-3,-3.6308736E-2,-4.5892928E-2,-1.8796932E-2,1.4234824E-1,1.2290588E-1,3.486858E-2,1.0783719E-1],"split_indices":[5,9,12,6,6,5,4,9,5,5,5,6,17,5,9,0,0,0,0,0,0,0,0,0,0,0,0,0,0,0,0],"split_type":[0,0,0,0,0,0,0,0,0,0,0,0,0,0,0,0,0,0,0,0,0,0,0,0,0,0,0,0,0,0,0],"sum_hessian":[4.691233E4,2.155136E4,2.536097E4,9.913075E3,1.1638285E4,2.4812326E4,5.4864374E2,7.137266E3,2.775809E3,9.001098E3,2.6371875E3,1.0916341E4,1.3895985E4,4.1263385E2,1.3600987E2,2.855424E3,4.281842E3,1.463622E2,2.6294468E3,1.5841956E3,7.416902E3,6.6532745E2,1.97186E3,8.542807E3,2.373534E3,1.0161774E4,3.7342107E3,2.1029005E2,2.023438E2,3.11301E1,1.0487977E2],"tree_param":{"num_deleted":"0","num_feature":"36","num_nodes":"31","size_leaf_vector":"1"}},{"base_weights":[-5.465989E-3,3.0299726E-1,-4.6187088E-1,1.1366278E-1,5.6254876E-1,-5.263126E-1,1.8423358E0,-5.9484754E-2,7.82205E-1,7.9824454E-1,2.1496198E-1,-6.3197076E-1,-1.9074239E-1,1.9877176E0,1.5420716E0,2.3301804E-2,-2.0091156E-2,5.395462E-2,7.724278E-3,4.6057176E-2,1.5660842E-1,3.0776437E-2,-8.7658325E-3,-2.4697933E-2,-4.6780262E-2,7.6770177E-3,-2.4409693E-2,1.2115898E-1,8.0934815E-2,9.971546E-2,4.8247647E-2],"categories":[],"categories_nodes":[],"categories_segments":[],"categories_sizes":[],"default_left":[0,0,0,0,0,0,0,0,0,0,0,0,0,0,0,0,0,0,0,0,0,0,0,0,0,0,0,0,0,0,0],"id":10,"left_children":[1,3,5,7,9,11,13,15,17,19,21,23,25,27,29,-1,-1,-1,-1,-1,-1,-1,-1,-1,-1,-1,-1,-1,-1,-1,-1],"loss_changes":[6.590427E3,1.3726401E3,2.8042393E3,1.8698241E3,9.650415E2,6.510615E2,1.93656E1,1.5824602E3,2.5402368E2,3.8755908E2,5.12428E2,4.542417E2,3.0301898E2,4.194824E0,1.3884033E1,0E0,0E0,0E0,0E0,0E0,0E0,0E0,0E0,0E0,0E0,0E0,0E0,0E0,0E0,0E0,0E0],"parents":[2147483647,0,0,1,1,2,2,3,3,4,4,5,5,6,6,7,7,8,8,9,9,10,10,11,11,12,12,13,13,14,14],"right_children":[2,4,6,8,10,12,14,16,18,20,22,24,26,28,30,-1,-1,-1,-1,-1,-1,-1,-1,-1,-1,-1,-1,-1,-1,-1,-1],"split_conditions":[3.22E1,1E0,1E0,1E0,3.93E1,1E0,1.234E2,1.13E1,5.93E1,1E0,1.71E1,4.34E1,4.96E1,4.94E1,1E0,2.3301804E-2,-2.0091156E-2,5.395462E-2,7.724278E-3,4.6057176E-2,1.5660842E-1,3.0776437E-2,-8.7658325E-3,-2.4697933E-2,-4.6780262E-2,7.6770177E-3,-2.4409693E-2,1.2115898E-1,8.0934815E-2,9.971546E-2,4.8247647E-2],"split_indices":[5,15,12,16,6,17,5,5,6,12,5,5,5,6,8,0,0,0,0,0,0,0,0,0,0,0,0,0,0,0,0],"split_type":[0,0,0,0,0,0,0,0,0,0,0,0,0,0,0,0,0,0,0,0,0,0,0,0,0,0,0,0,0,0,0],"sum_hessian":[4.6810285E4,2.793239E4,1.8877895E4,1.6151689E4,1.1780702E4,1.836505E4,5.1284326E2,1.2829781E4,3.3219082E3,7.0195234E3,4.7611787E3,1.3966615E4,4.398435E3,3.417533E2,1.7108995E2,4.8848423E3,7.944939E3,2.816996E3,5.04912E2,6.9042505E3,1.1527296E2,2.6082197E3,2.1529592E3,5.606563E3,8.360053E3,1.7774231E3,2.621012E3,3.235858E2,1.816751E1,1.4610783E2,2.4982113E1],"tree_param":{"num_deleted":"0","num_feature":"36","num_nodes":"31","size_leaf_vector":"1"}},{"base_weights":[-7.368841E-3,3.6654103E-1,-3.4977826E-1,1.7336997E-1,6.3301426E-1,-3.9983195E-1,1.7376196E0,2.6412642E-2,8.7333804E-1,6.1171687E-1,1.451004E-1,-1.2908208E-1,-5.962982E-1,1.9711701E0,1.5187311E0,-1.0558943E-2,3.8369466E-2,2.627849E-2,5.8063142E-2,8.937983E-2,3.4499172E-2,-1.2735244E-2,3.4928344E-2,-4.3129463E-2,-1.6166817E-2,1.2040334E-1,9.261732E-2,8.268934E-2,1.224047E-1],"categories":[],"categories_nodes":[],"categories_segments":[],"categories_sizes":[],"default_left":[0,0,0,0,0,0,0,0,0,0,0,0,0,0,0,0,0,0,0,0,0,0,0,0,0,0,0,0,0],"id":11,"left_children":[1,3,5,7,9,11,13,15,17,19,-1,21,23,25,27,-1,-1,-1,-1,-1,-1,-1,-1,-1,-1,-1,-1,-1,-1],"loss_changes":[5.9738506E3,1.1479824E3,2.545433E3,1.330212E3,3.5491235E2,1.265189E3,2.6172974E1,1.326437E3,9.177722E1,2.978833E2,0E0,5.918662E2,5.5181494E2,1.0469971E0,1.9092224E1,0E0,0E0,0E0,0E0,0E0,0E0,0E0,0E0,0E0,0E0,0E0,0E0,0E0,0E0],"parents":[2147483647,0,0,1,1,2,2,3,3,4,4,5,5,6,6,7,7,8,8,9,9,11,11,12,12,13,13,14,14],"right_children":[2,4,6,8,10,12,14,16,18,20,-1,22,24,26,28,-1,-1,-1,-1,-1,-1,-1,-1,-1,-1,-1,-1,-1,-1],"split_conditions":[2.42E1,1E0,1E0,1E0,1E0,3.89E1,8.25E1,1E0,2E0,1E0,1.451004E-1,1E0,1E0,1E0,1E0,-1.0558943E-2,3.8369466E-2,2.627849E-2,5.8063142E-2,8.937983E-2,3.4499172E-2,-1.2735244E-2,3.4928344E-2,-4.3129463E-2,-1.6166817E-2,1.2040334E-1,9.261732E-2,8.268934E-2,1.224047E-1],"split_indices":[5,15,12,16,12,5,5,20,9,9,0,17,17,18,1,0,0,0,0,0,0,0,0,0,0,0,0,0,0],"split_type":[0,0,0,0,0,0,0,0,0,0,0,0,0,0,0,0,0,0,0,0,0,0,0,0,0,0,0,0,0],"sum_hessian":[4.6657676E4,2.2302908E4,2.4354766E4,1.2930798E4,9.372109E3,2.3785229E4,5.6953723E2,1.0687922E4,2.2428765E3,9.262953E3,1.0915647E2,1.000248E4,1.3782748E4,2.7166724E2,2.9787E2,8.035787E3,2.6521343E3,4.0060324E2,1.8422733E3,3.7038315E2,8.89257E3,8.955861E3,1.0466193E3,1.0023905E4,3.7588433E3,2.4740125E2,2.4266003E1,2.3747969E2,6.0390293E1],"tree_param":{"num_deleted":"0","num_feature":"36","num_nodes":"29","size_leaf_vector":"1"}},{"base_weights":[-5.1278034E-3,2.5427982E-1,-4.4998363E-1,3.4808016E-1,-1.9084433E-1,-2.8864616E-1,-5.4299504E-1,1.6851719E-1,5.951918E-1,2.4113134E-2,-4.8458055E-1,-1.1639977E-1,-5.896732E-1,-3.8917804E-1,-6.7193246E-1,3.9885138E-4,4.509966E-2,4.4214558E-2,1.7910419E-2,-1.1154099E-2,1.6321909E-2,-3.2994576E-2,-9.336529E-3,-1.2405597E-2,1.8228753E-2,-2.8679924E-2,-4.8481546E-2,-2.6429664E-2,-4.087132E-3,-4.0591586E-2,1.0786804E-1],"categories":[],"categories_nodes":[],"categories_segments":[],"categories_sizes":[],"default_left":[0,0,0,0,0,0,0,0,0,0,0,0,0,0,0,0,0,0,0,0,0,0,0,0,0,0,0,0,0,0,0],"id":12,"left_children":[1,3,5,7,9,11,13,15,17,19,21,23,25,27,29,-1,-1,-1,-1,-1,-1,-1,-1,-1,-1,-1,-1,-1,-1,-1,-1],"loss_changes":[5.3759224E3,1.2286954E3,2.573391E2,1.0783616E3,3.234388E2,3.2539923E2,2.155835E2,1.3288435E3,4.2982788E2,1.5410233E2,4.6434143E1,1.5170755E2,5.5313904E1,8.1774475E1,6.8373535E1,0E0,0E0,0E0,0E0,0E0,0E0,0E0,0E0,0E0,0E0,0E0,0E0,0E0,0E0,0E0,0E0],"parents":[2147483647,0,0,1,1,2,2,3,3,4,4,5,5,6,6,7,7,8,8,9,9,10,10,11,11,12,12,13,13,14,14],"right_children":[2,4,6,8,10,12,14,16,18,20,22,24,26,28,30,-1,-1,-1,-1,-1,-1,-1,-1,-1,-1,-1,-1,-1,-1,-1,-1],"split_conditions":[3.34E1,5.68E1,4.46E1,1E0,1.71E1,3.9E1,2.29E1,1E0,2.14E1,1E0,1E0,1E0,5.75E1,9.73E1,1E0,3.9885138E-4,4.509966E-2,4.4214558E-2,1.7910419E-2,-1.1154099E-2,1.6321909E-2,-3.2994576E-2,-9.336529E-3,-1.2405597E-2,1.8228753E-2,-2.8679924E-2,-4.8481546E-2,-2.6429664E-2,-4.087132E-3,-4.0591586E-2,1.0786804E-1],"split_indices":[5,6,5,15,5,6,6,16,5,15,16,16,6,5,21,0,0,0,0,0,0,0,0,0,0,0,0,0,0,0,0],"split_type":[0,0,0,0,0,0,0,0,0,0,0,0,0,0,0,0,0,0,0,0,0,0,0,0,0,0,0,0,0,0,0],"sum_hessian":[4.658353E4,2.9425275E4,1.7158258E4,2.4303959E4,5.121317E3,6.2760063E3,1.0882251E4,1.4076785E4,1.0227173E4,2.9577444E3,2.1635725E3,3.9927556E3,2.283251E3,4.9641934E3,5.9180576E3,1.1019103E4,3.0576824E3,6.920143E3,3.3070303E3,1.6014163E3,1.3563281E3,1.8045444E3,3.5902808E2,3.2865432E3,7.0621234E2,1.512755E3,7.704959E2,4.279766E3,6.844271E2,5.9077944E3,1.0263076E1],"tree_param":{"num_deleted":"0","num_feature":"36","num_nodes":"31","size_leaf_vector":"1"}},{"base_weights":[-5.9147733E-3,2.2806247E-1,-4.473439E-1,4.0971264E-1,2.2372795E-2,-5.1381654E-1,1.5621297E0,1.4003116E0,3.7504545E-1,-2.9943781E-2,8.771937E-1,-6.3335174E-1,-1.7063762E-1,1.7814647E0,9.397582E-1,9.798073E-2,-7.7609476E-3,1.3163315E-2,3.501586E-2,-8.969778E-3,2.8119124E-2,8.6618476E-2,4.2613048E-2,-2.5931284E-2,-4.537991E-2,6.9997506E-3,-2.1320475E-2,1.02066785E-1,1.1701527E-1,-6.8994844E-3,6.790524E-2],"categories":[],"categories_nodes":[],"categories_segments":[],"categories_sizes":[],"default_left":[0,0,0,0,0,0,0,0,0,0,0,0,0,0,0,0,0,0,0,0,0,0,0,0,0,0,0,0,0,0,0],"id":13,"left_children":[1,3,5,7,9,11,13,15,17,19,21,23,25,27,29,-1,-1,-1,-1,-1,-1,-1,-1,-1,-1,-1,-1,-1,-1,-1,-1],"loss_changes":[4.804181E3,1.1358622E3,2.1531797E3,5.5386597E2,6.376597E2,6.3977E2,6.879297E1,1.9438184E2,5.062583E2,8.010053E2,7.675232E1,2.8586572E2,2.1394702E2,1.8439941E0,2.7799355E1,0E0,0E0,0E0,0E0,0E0,0E0,0E0,0E0,0E0,0E0,0E0,0E0,0E0,0E0,0E0,0E0],"parents":[2147483647,0,0,1,1,2,2,3,3,4,4,5,5,6,6,7,7,8,8,9,9,10,10,11,11,12,12,13,13,14,14],"right_children":[2,4,6,8,10,12,14,16,18,20,22,24,26,28,30,-1,-1,-1,-1,-1,-1,-1,-1,-1,-1,-1,-1,-1,-1,-1,-1],"split_conditions":[3.45E1,1.65E1,1E0,5.1E0,1E0,1E0,1E0,1E0,1E0,1E0,2.46E1,4.43E1,4.96E1,1E0,4E0,9.798073E-2,-7.7609476E-3,1.3163315E-2,3.501586E-2,-8.969778E-3,2.8119124E-2,8.6618476E-2,4.2613048E-2,-2.5931284E-2,-4.537991E-2,6.9997506E-3,-2.1320475E-2,1.02066785E-1,1.1701527E-1,-6.8994844E-3,6.790524E-2],"split_indices":[5,5,12,5,17,17,4,19,15,16,5,5,5,1,9,0,0,0,0,0,0,0,0,0,0,0,0,0,0,0,0],"split_type":[0,0,0,0,0,0,0,0,0,0,0,0,0,0,0,0,0,0,0,0,0,0,0,0,0,0,0,0,0,0,0],"sum_hessian":[4.651213E4,3.039951E4,1.611262E4,1.6142571E4,1.42569375E4,1.5597408E4,5.152123E2,5.4449493E2,1.5598076E4,1.3435618E4,8.213191E2,1.1567426E4,4.0299822E3,3.7957925E2,1.35633E2,4.725417E2,7.195326E1,8.932895E3,6.665181E3,1.0837678E4,2.597941E3,1.8524628E2,6.360728E2,4.390392E3,7.1770337E3,1.5771492E3,2.452833E3,2.64665E2,1.1491425E2,2.0948921E1,1.14684074E2],"tree_param":{"num_deleted":"0","num_feature":"36","num_nodes":"31","size_leaf_vector":"1"}},{"base_weights":[-1.6759795E-3,2.2211109E-1,-4.13914E-1,3.3798122E-1,-8.488002E-2,-4.7820505E-1,1.4570398E0,1.713916E-1,5.6848365E-1,2.3010316E-1,-2.0521194E-1,-5.916991E-1,-1.517521E-1,1.6353642E0,9.8778015E-1,1.8635107E-3,4.0864144E-2,3.2692056E-2,1.2974627E-1,7.774689E-2,1.0308891E-2,-1.4965948E-2,4.227291E-2,-2.5054E-2,-4.6051636E-2,7.935863E-3,-2.08908E-2,1.1216999E-1,7.409204E-2,-1.685665E-2,6.601338E-2],"categories":[],"categories_nodes":[],"categories_segments":[],"categories_sizes":[],"default_left":[0,0,0,0,0,0,0,0,0,0,0,0,0,0,0,0,0,0,0,0,0,0,0,0,0,0,0,0,0,0,0],"id":14,"left_children":[1,3,5,7,9,11,13,15,17,19,21,23,25,27,29,-1,-1,-1,-1,-1,-1,-1,-1,-1,-1,-1,-1,-1,-1,-1,-1],"loss_changes":[4.2820044E3,1.0701555E3,1.9651357E3,8.385764E2,3.1252695E2,5.849241E2,4.380591E1,9.068773E2,3.4371802E2,1.41366E2,2.4018431E2,3.5839355E2,2.2736487E2,3.443103E1,2.1992493E1,0E0,0E0,0E0,0E0,0E0,0E0,0E0,0E0,0E0,0E0,0E0,0E0,0E0,0E0,0E0,0E0],"parents":[2147483647,0,0,1,1,2,2,3,3,4,4,5,5,6,6,7,7,8,8,9,9,10,10,11,11,12,12,13,13,14,14],"right_children":[2,4,6,8,10,12,14,16,18,20,22,24,26,28,30,-1,-1,-1,-1,-1,-1,-1,-1,-1,-1,-1,-1,-1,-1,-1,-1],"split_conditions":[3.34E1,4.62E1,1E0,1E0,9.5E0,1E0,1E0,1E0,1E0,4.5E0,1E0,4.79E1,4.96E1,1E0,3E0,1.8635107E-3,4.0864144E-2,3.2692056E-2,1.2974627E-1,7.774689E-2,1.0308891E-2,-1.4965948E-2,4.227291E-2,-2.5054E-2,-4.6051636E-2,7.935863E-3,-2.08908E-2,1.1216999E-1,7.409204E-2,-1.685665E-2,6.601338E-2],"split_indices":[5,6,12,15,5,17,4,16,12,5,17,5,5,3,9,0,0,0,0,0,0,0,0,0,0,0,0,0,0,0,0],"split_type":[0,0,0,0,0,0,0,0,0,0,0,0,0,0,0,0,0,0,0,0,0,0,0,0,0,0,0,0,0,0,0],"sum_hessian":[4.6413613E4,3.0083162E4,1.633045E4,2.1839863E4,8.243297E3,1.5788653E4,5.417967E2,1.267853E4,9.161334E3,2.2784001E3,5.964897E3,1.1715019E4,4.0736348E3,3.908022E2,1.5099452E2,9.942149E3,2.736381E3,9.028903E3,1.324303E2,1.1705563E2,2.1613445E3,5.689094E3,2.7580276E2,5.8875884E3,5.8274307E3,1.665624E3,2.4080107E3,2.4430841E2,1.4649377E2,1.2170696E1,1.3882384E2],"tree_param":{"num_deleted":"0","num_feature":"36","num_nodes":"31","size_leaf_vector":"1"}},{"base_weights":[-8.131347E-3,2.9386064E-1,-2.8203723E-1,3.5782284E-1,-1.9355832E-1,-8.081613E-2,-4.525512E-1,5.432167E-1,1.8845463E-1,-3.0514784E-2,-3.4846294E-1,2.5160227E-2,-4.9875167E-1,-5.4362E-1,-2.1253538E-1,1.1790165E-1,3.1090656E-2,3.5601847E-2,4.9143014E-3,5.2217157E-3,-2.8175104E-2,-2.213801E-2,7.6547384E-2,-2.3394227E-3,3.5971213E-2,-3.361853E-2,8.878411E-3,-4.47221E-2,-2.1197062E-2,-5.7188296E-3,-3.0084303E-2],"categories":[],"categories_nodes":[],"categories_segments":[],"categories_sizes":[],"default_left":[0,0,0,0,0,0,0,0,0,0,0,0,0,0,0,0,0,0,0,0,0,0,0,0,0,0,0,0,0,0,0],"id":15,"left_children":[1,3,5,7,9,11,13,15,17,19,21,23,25,27,29,-1,-1,-1,-1,-1,-1,-1,-1,-1,-1,-1,-1,-1,-1,-1,-1],"loss_changes":[3.8317278E3,6.869475E2,8.3341626E2,6.1145874E2,6.455534E1,4.935723E2,2.8728662E2,3.2999292E2,4.3913452E2,6.437746E1,4.412645E1,3.2759323E2,8.9821594E1,3.657373E2,1.22475174E2,0E0,0E0,0E0,0E0,0E0,0E0,0E0,0E0,0E0,0E0,0E0,0E0,0E0,0E0,0E0,0E0],"parents":[2147483647,0,0,1,1,2,2,3,3,4,4,5,5,6,6,7,7,8,8,9,9,10,10,11,11,12,12,13,13,14,14],"right_children":[2,4,6,8,10,12,14,16,18,20,22,24,26,28,30,-1,-1,-1,-1,-1,-1,-1,-1,-1,-1,-1,-1,-1,-1,-1,-1],"split_conditions":[2.25E1,6.41E1,3.82E1,5E0,5E0,5.13E1,1E0,4.5E0,9.2E0,1E0,1E0,1E0,1E0,1E0,5.82E1,1.1790165E-1,3.1090656E-2,3.5601847E-2,4.9143014E-3,5.2217157E-3,-2.8175104E-2,-2.213801E-2,7.6547384E-2,-2.3394227E-3,3.5971213E-2,-3.361853E-2,8.878411E-3,-4.47221E-2,-2.1197062E-2,-5.7188296E-3,-3.0084303E-2],"split_indices":[5,6,5,9,9,6,17,5,5,4,17,17,17,15,5,0,0,0,0,0,0,0,0,0,0,0,0,0,0,0,0],"split_type":[0,0,0,0,0,0,0,0,0,0,0,0,0,0,0,0,0,0,0,0,0,0,0,0,0,0,0,0,0,0,0],"sum_hessian":[4.632113E4,2.2031006E4,2.4290123E4,1.9475564E4,2.555441E3,1.1142496E4,1.3147626E4,9.296844E3,1.0178721E4,1.2455963E3,1.3098447E3,8.889354E3,2.2531428E3,9.530296E3,3.6173298E3,1.5954979E2,9.137294E3,2.119528E3,8.059193E3,9.831889E2,2.624074E2,1.294279E3,1.55656E1,7.9970864E3,8.922672E2,2.057443E3,1.9569968E2,4.6250293E3,4.9052666E3,2.574104E3,1.0432258E3],"tree_param":{"num_deleted":"0","num_feature":"36","num_nodes":"31","size_leaf_vector":"1"}},{"base_weights":[-8.692927E-3,2.360461E-1,-3.17076E-1,9.0954304E-2,4.2416564E-1,-1.3427584E-1,-4.519345E-1,-1.8209878E-2,5.3639966E-1,1.0601664E0,3.980197E-1,-1.7459409E-1,1.9712973E-1,-4.5685232E-1,1.6536417E0,-4.905917E-3,6.320638E-2,4.4738315E-2,-8.707872E-3,7.1817026E-2,-5.48321E-2,7.6770848E-3,2.78978E-2,-1.572533E-2,-3.4802065E-3,2.2092158E-2,-8.4443355E-4,-2.8819662E-2,-3.416752E-3,2.0116867E-1,-9.772464E-3],"categories":[],"categories_nodes":[],"categories_segments":[],"categories_sizes":[],"default_left":[0,0,0,0,0,0,0,0,0,0,0,0,0,0,0,0,0,0,0,0,0,0,0,0,0,0,0,0,0,0,0],"id":16,"left_children":[1,3,5,7,9,11,13,15,17,19,21,23,25,27,29,-1,-1,-1,-1,-1,-1,-1,-1,-1,-1,-1,-1,-1,-1,-1,-1],"loss_changes":[3.4908875E3,7.038252E2,5.044602E2,7.0801843E2,1.8629626E2,1.16145645E2,1.2270215E2,7.9663495E2,4.0879437E2,1.2065115E2,1.9495886E2,7.9021286E1,3.4076824E1,1.10281494E2,8.591581E1,0E0,0E0,0E0,0E0,0E0,0E0,0E0,0E0,0E0,0E0,0E0,0E0,0E0,0E0,0E0,0E0],"parents":[2147483647,0,0,1,1,2,2,3,3,4,4,5,5,6,6,7,7,8,8,9,9,10,10,11,11,12,12,13,13,14,14],"right_children":[2,4,6,8,10,12,14,16,18,20,22,24,26,28,30,-1,-1,-1,-1,-1,-1,-1,-1,-1,-1,-1,-1,-1,-1,-1,-1],"split_conditions":[2.68E1,1E0,4.02E1,1E0,1E0,1E0,1E0,1E0,1E0,1E0,2E0,1E0,5E0,9.73E1,6.3E1,-4.905917E-3,6.320638E-2,4.4738315E-2,-8.707872E-3,7.1817026E-2,-5.48321E-2,7.6770848E-3,2.78978E-2,-1.572533E-2,-3.4802065E-3,2.2092158E-2,-8.4443355E-4,-2.8819662E-2,-3.416752E-3,2.0116867E-1,-9.772464E-3],"split_indices":[5,15,5,20,9,28,21,21,4,4,9,15,9,5,5,0,0,0,0,0,0,0,0,0,0,0,0,0,0,0,0],"split_type":[0,0,0,0,0,0,0,0,0,0,0,0,0,0,0,0,0,0,0,0,0,0,0,0,0,0,0,0,0,0,0],"sum_hessian":[4.625124E4,2.578666E4,2.046458E4,1.4559089E4,1.1227571E4,8.688859E3,1.177572E4,1.1694184E4,2.8649053E3,4.4177737E2,1.0785794E4,7.746863E3,9.4199725E2,1.1749062E4,2.6658453E1,1.1040347E4,6.538367E2,2.1918762E3,6.73029E2,4.135177E2,2.8259678E1,2.1430554E3,8.642738E3,4.424943E3,3.32192E3,5.2003253E2,4.2196472E2,1.1097419E4,6.51643E2,1.3337147E1,1.3321307E1],"tree_param":{"num_deleted":"0","num_feature":"36","num_nodes":"31","size_leaf_vector":"1"}},{"base_weights":[-6.4298604E-3,1.6797286E-1,-4.0015012E-1,2.3723902E-1,-2.383172E-1,-4.907057E-1,-1.5093325E-1,5.20443E-1,1.3272321E-1,-8.969203E-2,-5.2823544E-1,-6.8783927E-1,-3.079662E-1,-5.1412273E-2,-5.188415E-1,6.1749257E-2,2.676309E-2,-2.5545852E-3,2.1888653E-2,4.2815753E-3,-1.6730262E-2,-3.4177918E-2,5.457627E-3,-5.6412164E-2,-1.1319743E-2,-3.530601E-3,-2.7874213E-2,1.9346265E-2,-7.1990984E-3,-2.578796E-2,-4.727083E-2],"categories":[],"categories_nodes":[],"categories_segments":[],"categories_sizes":[],"default_left":[0,0,0,0,0,0,0,0,0,0,0,0,0,0,0,0,0,0,0,0,0,0,0,0,0,0,0,0,0,0,0],"id":17,"left_children":[1,3,5,7,9,11,13,15,17,19,21,23,25,27,29,-1,-1,-1,-1,-1,-1,-1,-1,-1,-1,-1,-1,-1,-1,-1,-1],"loss_changes":[3.172484E3,9.011326E2,3.2000854E2,8.096378E2,2.0092563E2,3.7453027E2,1.3843076E2,2.785929E2,8.1301483E2,9.398442E1,4.0564026E1,6.301184E2,2.1065302E2,7.636889E1,1.894368E1,0E0,0E0,0E0,0E0,0E0,0E0,0E0,0E0,0E0,0E0,0E0,0E0,0E0,0E0,0E0,0E0],"parents":[2147483647,0,0,1,1,2,2,3,3,4,4,5,5,6,6,7,7,8,8,9,9,10,10,11,11,12,12,13,13,14,14],"right_children":[2,4,6,8,10,12,14,16,18,20,22,24,26,28,30,-1,-1,-1,-1,-1,-1,-1,-1,-1,-1,-1,-1,-1,-1,-1,-1],"split_conditions":[3.54E1,5.93E1,1E0,1.06E1,2E1,1E0,5.95E1,6.1E0,1E0,7.26E1,1E0,1E0,2.23E1,7.4E0,6.8E1,6.1749257E-2,2.676309E-2,-2.5545852E-3,2.1888653E-2,4.2815753E-3,-1.6730262E-2,-3.4177918E-2,5.457627E-3,-5.6412164E-2,-1.1319743E-2,-3.530601E-3,-2.7874213E-2,1.9346265E-2,-7.1990984E-3,-2.578796E-2,-4.727083E-2],"split_indices":[5,6,17,5,5,15,5,5,15,6,17,16,6,6,5,0,0,0,0,0,0,0,0,0,0,0,0,0,0,0,0],"split_type":[0,0,0,0,0,0,0,0,0,0,0,0,0,0,0,0,0,0,0,0,0,0,0,0,0,0,0,0,0,0,0],"sum_hessian":[4.619977E4,3.2017736E4,1.4182035E4,2.7354615E4,4.663121E3,1.0401552E4,3.7804827E3,7.3727812E3,1.9981834E4,3.083625E3,1.5794962E3,5.00238E3,5.3991724E3,2.9764722E3,8.040105E2,9.389728E2,6.4338086E3,1.1384073E4,8.597761E3,1.6658385E3,1.4177865E3,1.4805908E3,9.890536E1,3.322019E3,1.6803608E3,2.0845244E3,3.3146482E3,4.607604E2,2.5157117E3,6.060146E2,1.9799594E2],"tree_param":{"num_deleted":"0","num_feature":"36","num_nodes":"31","size_leaf_vector":"1"}},{"base_weights":[-7.451928E-3,1.5660864E-1,-3.8717675E-1,3.398227E-1,2.2368008E-2,-2.3360391E-1,-4.9434376E-1,3.8399032E-1,-2.2302896E-1,-6.990509E-2,4.6891773E-1,-3.335702E-1,-6.8600036E-2,-3.7116346E-1,-6.250807E-1,9.3970165E-2,2.1521138E-2,1.8948141E-2,-1.5715407E-2,-2.320677E-2,1.2028508E-2,4.0217295E-2,1.184987E-2,-2.4406884E-2,5.3901976E-4,4.0852865E-3,-1.7557245E-2,-1.2915038E-2,-3.9290585E-2,-3.7913527E-2,9.776313E-2],"categories":[],"categories_nodes":[],"categories_segments":[],"categories_sizes":[],"default_left":[0,0,0,0,0,0,0,0,0,0,0,0,0,0,0,0,0,0,0,0,0,0,0,0,0,0,0,0,0,0,0],"id":18,"left_children":[1,3,5,7,9,11,13,15,17,19,21,23,25,27,29,-1,-1,-1,-1,-1,-1,-1,-1,-1,-1,-1,-1,-1,-1,-1,-1],"loss_changes":[2.8758872E3,7.928284E2,2.2910376E2,3.3895972E2,7.6666583E2,9.443118E1,1.3185925E2,3.77557E2,2.0882553E1,1.3212306E3,1.7401904E2,8.942572E1,6.62113E1,1.8675671E2,6.211035E1,0E0,0E0,0E0,0E0,0E0,0E0,0E0,0E0,0E0,0E0,0E0,0E0,0E0,0E0,0E0,0E0],"parents":[2147483647,0,0,1,1,2,2,3,3,4,4,5,5,6,6,7,7,8,8,9,9,10,10,11,11,12,12,13,13,14,14],"right_children":[2,4,6,8,10,12,14,16,18,20,22,24,26,28,30,-1,-1,-1,-1,-1,-1,-1,-1,-1,-1,-1,-1,-1,-1,-1,-1],"split_conditions":[3.54E1,1.34E1,2.29E1,7.26E1,1E0,1E0,4.88E1,4.5E0,4.5E0,1E0,3.61E1,1E0,1E0,4.42E1,1E0,9.3970165E-2,2.1521138E-2,1.8948141E-2,-1.5715407E-2,-2.320677E-2,1.2028508E-2,4.0217295E-2,1.184987E-2,-2.4406884E-2,5.3901976E-4,4.0852865E-3,-1.7557245E-2,-1.2915038E-2,-3.9290585E-2,-3.7913527E-2,9.776313E-2],"split_indices":[5,5,6,6,16,15,5,5,5,15,6,16,31,6,20,0,0,0,0,0,0,0,0,0,0,0,0,0,0,0,0],"split_type":[0,0,0,0,0,0,0,0,0,0,0,0,0,0,0,0,0,0,0,0,0,0,0,0,0,0,0,0,0,0,0],"sum_hessian":[4.6161523E4,3.2234959E4,1.3926565E4,1.3630402E4,1.8604557E4,5.725282E3,8.201282E3,1.263893E4,9.9147296E2,1.5419235E4,3.1853206E3,3.564647E3,2.1606353E3,4.224654E3,3.9766287E3,2.6359183E2,1.2375338E4,6.62701E1,9.252028E2,7.0990327E3,8.320203E3,1.8277876E3,1.357533E3,2.9368015E3,6.278456E2,1.3423097E3,8.183256E2,2.7274062E3,1.4972477E3,3.965368E3,1.1260839E1],"tree_param":{"num_deleted":"0","num_feature":"36","num_nodes":"31","size_leaf_vector":"1"}},{"base_weights":[-7.4176425E-3,-3.3614945E-2,1.6332622E0,2.2369799E-1,-1.5141097E-1,1.4886221E0,1.1328637E-1,2.9817092E-1,-3.1731936E-1,-2.0090915E-1,4.421299E-1,1.3731375E0,1.1271756E-1,2.220287E-2,-2.8336786E-2,-5.0789067E-3,-3.078991E-2,-1.6096825E-2,1.2012746E-2,2.1410827E-2,4.2240072E-2,7.5181045E-2,1.1147612E-1],"categories":[],"categories_nodes":[],"categories_segments":[],"categories_sizes":[],"default_left":[0,0,0,0,0,0,0,0,0,0,0,0,0,0,0,0,0,0,0,0,0,0,0],"id":19,"left_children":[1,3,5,7,9,11,-1,13,15,17,19,21,-1,-1,-1,-1,-1,-1,-1,-1,-1,-1,-1],"loss_changes":[1.9786842E3,1.373462E3,2.385852E1,5.7342993E2,9.132892E2,1.8421509E1,0E0,6.928688E2,7.843584E1,7.754087E2,5.3190918E1,1.8838379E1,0E0,0E0,0E0,0E0,0E0,0E0,0E0,0E0,0E0,0E0,0E0],"parents":[2147483647,0,0,1,1,2,2,3,3,4,4,5,5,7,7,8,8,9,9,10,10,11,11],"right_children":[2,4,6,8,10,12,-1,14,16,18,20,22,-1,-1,-1,-1,-1,-1,-1,-1,-1,-1,-1],"split_conditions":[1E0,4E0,9.95E1,1E0,1E0,1E0,1.1328637E-1,1E0,2.7E1,1E0,1E0,1E0,1.1271756E-1,2.220287E-2,-2.8336786E-2,-5.0789067E-3,-3.078991E-2,-1.6096825E-2,1.2012746E-2,2.1410827E-2,4.2240072E-2,7.5181045E-2,1.1147612E-1],"split_indices":[12,9,10,29,20,1,0,31,6,16,1,2,0,0,0,0,0,0,0,0,0,0,0],"split_type":[0,0,0,0,0,0,0,0,0,0,0,0,0,0,0,0,0,0,0,0,0,0,0],"sum_hessian":[4.6033562E4,4.5311047E4,7.225176E2,1.42288125E4,3.1082232E4,4.6528204E2,2.5723557E2,1.2507554E4,1.7212593E3,2.8690277E4,2.3919563E3,3.624711E2,1.0281094E2,1.1440743E4,1.0668108E3,7.873249E2,9.339343E2,2.4564777E4,4.1255005E3,1.806124E3,5.858322E2,2.9336707E2,6.910402E1],"tree_param":{"num_deleted":"0","num_feature":"36","num_nodes":"23","size_leaf_vector":"1"}},{"base_weights":[-3.0395116E-3,1.4699031E-1,-3.641319E-1,3.1039143E-1,2.1838652E-2,-2.4558827E-1,-4.6709904E-1,1.04040794E-1,4.3383884E-1,-3.280742E-2,4.2604452E-1,-2.5093135E-1,1.6311355E-1,-5.137985E-1,-7.9139136E-2,4.8415314E-2,-2.8016192E-3,6.551325E-2,2.2603417E-2,-1.16475085E-2,1.0513122E-2,6.747345E-2,2.257822E-2,-9.144019E-3,-2.382274E-2,-3.1152701E-2,9.829685E-2,6.9445493E-3,-2.1595724E-2],"categories":[],"categories_nodes":[],"categories_segments":[],"categories_sizes":[],"default_left":[0,0,0,0,0,0,0,0,0,0,0,0,0,0,0,0,0,0,0,0,0,0,0,0,0,0,0,0,0],"id":20,"left_children":[1,3,5,7,9,11,13,15,17,19,21,23,-1,25,27,-1,-1,-1,-1,-1,-1,-1,-1,-1,-1,-1,-1,-1,-1],"loss_changes":[2.492698E3,6.647443E2,1.6474072E2,3.5909534E2,4.066297E2,1.0014642E2,1.3089001E2,5.592969E2,3.311234E2,5.4425775E2,7.5751465E1,9.020532E1,0E0,7.599341E1,4.25935E1,0E0,0E0,0E0,0E0,0E0,0E0,0E0,0E0,0E0,0E0,0E0,0E0,0E0,0E0],"parents":[2147483647,0,0,1,1,2,2,3,3,4,4,5,5,6,6,7,7,8,8,9,9,10,10,11,11,13,13,14,14],"right_children":[2,4,6,8,10,12,14,16,18,20,22,24,-1,26,28,-1,-1,-1,-1,-1,-1,-1,-1,-1,-1,-1,-1,-1,-1],"split_conditions":[3.54E1,5E0,4.94E1,2E0,1E0,1E0,8.86E1,1E0,7.1E0,1E0,6.7E0,5.1E1,1.6311355E-1,1E0,1E0,4.8415314E-2,-2.8016192E-3,6.551325E-2,2.2603417E-2,-1.16475085E-2,1.0513122E-2,6.747345E-2,2.257822E-2,-9.144019E-3,-2.382274E-2,-3.1152701E-2,9.829685E-2,6.9445493E-3,-2.1595724E-2],"split_indices":[5,9,5,9,20,21,5,9,5,15,5,10,0,21,31,0,0,0,0,0,0,0,0,0,0,0,0,0,0],"split_type":[0,0,0,0,0,0,0,0,0,0,0,0,0,0,0,0,0,0,0,0,0,0,0,0,0,0,0,0,0],"sum_hessian":[4.601029E4,3.2505295E4,1.3504992E4,1.4097618E4,1.8407678E4,6.2792393E3,7.2257534E3,5.2775996E3,8.820019E3,1.6216261E4,2.1914167E3,6.2688545E3,1.0384681E1,6.4491353E3,7.766182E2,9.311685E2,4.346431E3,7.029474E2,8.117071E3,9.133548E3,7.082713E3,1.442399E2,2.0471769E3,3.7452908E3,2.5235637E3,6.4337104E3,1.5424398E1,4.5878613E2,3.178321E2],"tree_param":{"num_deleted":"0","num_feature":"36","num_nodes":"29","size_leaf_vector":"1"}},{"base_weights":[-1.1520993E-3,2.1929514E-1,-2.2128937E-1,3.527344E-1,6.1616343E-2,-8.1498414E-2,-3.8234767E-1,2.3927906E-1,5.151465E-1,6.79454E-3,5.137046E-1,-1.5141101E-1,5.239479E-1,-4.87443E-1,-1.21083416E-1,1.1216816E-2,5.8724094E-2,2.8346747E-2,6.118112E-2,-1.4135129E-2,1.3188717E-2,4.079438E-3,3.6725312E-2,-1.623389E-2,1.53820785E-2,4.721271E-2,1.9895645E-2,-4.274522E-2,-1.708877E-2,-2.4200801E-3,-3.0590096E-2],"categories":[],"categories_nodes":[],"categories_segments":[],"categories_sizes":[],"default_left":[0,0,0,0,0,0,0,0,0,0,0,0,0,0,0,0,0,0,0,0,0,0,0,0,0,0,0,0,0,0,0],"id":21,"left_children":[1,3,5,7,9,11,13,15,17,19,21,23,25,27,29,-1,-1,-1,-1,-1,-1,-1,-1,-1,-1,-1,-1,-1,-1,-1,-1],"loss_changes":[2.2298333E3,4.830321E2,5.175897E2,2.2900488E2,2.6083972E2,5.211055E2,2.932544E2,2.8318103E2,1.0967615E2,4.8473068E2,4.9869904E1,5.3627704E2,6.419574E1,3.4706555E2,9.621617E1,0E0,0E0,0E0,0E0,0E0,0E0,0E0,0E0,0E0,0E0,0E0,0E0,0E0,0E0,0E0,0E0],"parents":[2147483647,0,0,1,1,2,2,3,3,4,4,5,5,6,6,7,7,8,8,9,9,10,10,11,11,12,12,13,13,14,14],"right_children":[2,4,6,8,10,12,14,16,18,20,22,24,26,28,30,-1,-1,-1,-1,-1,-1,-1,-1,-1,-1,-1,-1,-1,-1,-1,-1],"split_conditions":[2.21E1,3.11E1,4.02E1,1E0,1E0,1E0,1E0,1E0,1E0,1E0,2E0,1E0,3.22E1,1E0,6.13E1,1.1216816E-2,5.8724094E-2,2.8346747E-2,6.118112E-2,-1.4135129E-2,1.3188717E-2,4.079438E-3,3.6725312E-2,-1.623389E-2,1.53820785E-2,4.721271E-2,1.9895645E-2,-4.274522E-2,-1.708877E-2,-2.4200801E-3,-3.0590096E-2],"split_indices":[5,6,5,15,16,17,17,21,28,15,9,16,5,15,5,0,0,0,0,0,0,0,0,0,0,0,0,0,0,0,0],"split_type":[0,0,0,0,0,0,0,0,0,0,0,0,0,0,0,0,0,0,0,0,0,0,0,0,0,0,0,0,0,0,0],"sum_hessian":[4.59468E4,2.2957238E4,2.298956E4,1.2433701E4,1.0523537E4,1.2308164E4,1.0681396E4,7.321579E3,5.112122E3,9.386333E3,1.1372046E3,1.1034706E4,1.2734587E3,7.6166724E3,3.0647239E3,6.8388394E3,4.8273956E2,4.7150127E3,3.9710962E2,4.390516E3,4.995817E3,2.0593549E2,9.312691E2,8.53972E3,2.4949863E3,5.3671967E2,7.367391E2,3.6081162E3,4.0085562E3,2.5385398E3,5.26184E2],"tree_param":{"num_deleted":"0","num_feature":"36","num_nodes":"31","size_leaf_vector":"1"}},{"base_weights":[-5.594512E-3,-3.0690314E-2,1.5295055E0,1.924078E-1,-1.3663611E-1,1.6890739E0,1.0373313E0,2.7163392E-1,-2.7875003E-1,-1.8220101E-1,3.7496105E-1,1.1009503E-1,1.4249129E0,7.994302E-1,1.5657E0,2.0859614E-2,-1.6071763E-2,-5.0114963E-2,6.2115085E-3,-1.2233162E-2,5.597555E-2,3.1814467E-2,-7.1813976E-3,7.363447E-2,1.0245503E-1,-4.750168E-3,5.419833E-2,1.0560086E-1,6.460339E-2],"categories":[],"categories_nodes":[],"categories_segments":[],"categories_sizes":[],"default_left":[0,0,0,0,0,0,0,0,0,0,0,0,0,0,0,0,0,0,0,0,0,0,0,0,0,0,0,0,0],"id":22,"left_children":[1,3,5,7,9,11,13,15,17,19,21,-1,23,25,27,-1,-1,-1,-1,-1,-1,-1,-1,-1,-1,-1,-1,-1,-1],"loss_changes":[1.7667734E3,1.0665687E3,5.6181396E1,5.424207E2,7.132619E2,1.8785767E1,2.1776367E1,5.102597E2,4.4511383E2,6.7953503E2,1.9227051E2,0E0,9.194946E0,1.1786728E1,3.4100342E0,0E0,0E0,0E0,0E0,0E0,0E0,0E0,0E0,0E0,0E0,0E0,0E0,0E0,0E0],"parents":[2147483647,0,0,1,1,2,2,3,3,4,4,5,5,6,6,7,7,8,8,9,9,10,10,12,12,13,13,14,14],"right_children":[2,4,6,8,10,12,14,16,18,20,22,-1,24,26,28,-1,-1,-1,-1,-1,-1,-1,-1,-1,-1,-1,-1,-1,-1],"split_conditions":[1E0,4E0,1E0,1E0,1E0,1E0,9.95E1,1E0,2E0,1E0,1E0,1.1009503E-1,8.96E1,3E0,3.11E1,2.0859614E-2,-1.6071763E-2,-5.0114963E-2,6.2115085E-3,-1.2233162E-2,5.597555E-2,3.1814467E-2,-7.1813976E-3,7.363447E-2,1.0245503E-1,-4.750168E-3,5.419833E-2,1.0560086E-1,6.460339E-2],"split_indices":[12,9,4,4,20,3,10,29,9,21,4,0,10,9,6,0,0,0,0,0,0,0,0,0,0,0,0,0,0],"split_type":[0,0,0,0,0,0,0,0,0,0,0,0,0,0,0,0,0,0,0,0,0,0,0,0,0,0,0,0,0],"sum_hessian":[4.5858734E4,4.512206E4,7.36675E2,1.4528171E4,3.0593889E4,5.544759E2,1.8219911E2,1.2437247E4,2.0909238E3,2.80925E4,2.5013875E3,3.5341125E2,2.0106462E2,1.2736519E2,5.483392E1,1.0901371E4,1.5358751E3,8.509554E2,1.2399685E3,2.755743E4,5.3507153E2,1.9037068E3,5.976806E2,1.21465416E2,7.9599205E1,1.3491231E1,1.1387396E2,3.7380074E1,1.7453844E1],"tree_param":{"num_deleted":"0","num_feature":"36","num_nodes":"29","size_leaf_vector":"1"}},{"base_weights":[-3.406021E-3,-2.7134262E-2,1.4495217E0,1.8274166E-1,-1.2825204E-1,1.6085801E0,9.650506E-1,2.580035E-1,-2.755373E-1,-1.734775E-1,3.638427E-1,1.08643204E-1,1.5542413E0,3.1774583E-1,1.1503583E0,1.9822454E-2,-1.6014652E-2,-4.9582526E-2,5.261135E-3,-1.1612086E-2,4.889313E-2,2.9921832E-2,-4.7873417E-3,8.086269E-2,9.5413156E-2,1.6468263E-4,5.494479E-2,5.039112E-2,7.9282604E-2],"categories":[],"categories_nodes":[],"categories_segments":[],"categories_sizes":[],"default_left":[0,0,0,0,0,0,0,0,0,0,0,0,0,0,0,0,0,0,0,0,0,0,0,0,0,0,0,0,0],"id":23,"left_children":[1,3,5,7,9,11,13,15,17,19,21,-1,23,25,27,-1,-1,-1,-1,-1,-1,-1,-1,-1,-1,-1,-1,-1,-1],"loss_changes":[1.5783544E3,9.560027E2,5.513745E1,5.0525714E2,6.7662787E2,3.2526855E0,2.1745117E1,4.7803326E2,4.135506E2,5.520977E2,1.5313809E2,0E0,1.1437988E0,7.9856796E0,6.4798584E0,0E0,0E0,0E0,0E0,0E0,0E0,0E0,0E0,0E0,0E0,0E0,0E0,0E0,0E0],"parents":[2147483647,0,0,1,1,2,2,3,3,4,4,5,5,6,6,7,7,8,8,9,9,10,10,12,12,13,13,14,14],"right_children":[2,4,6,8,10,12,14,16,18,20,22,-1,24,26,28,-1,-1,-1,-1,-1,-1,-1,-1,-1,-1,-1,-1,-1,-1],"split_conditions":[1E0,4E0,1E0,1E0,1E0,1E0,5E0,1E0,2E0,1E0,1E0,1.08643204E-1,2.25E1,1E0,6.12E1,1.9822454E-2,-1.6014652E-2,-4.9582526E-2,5.261135E-3,-1.1612086E-2,4.889313E-2,2.9921832E-2,-4.7873417E-3,8.086269E-2,9.5413156E-2,1.6468263E-4,5.494479E-2,5.039112E-2,7.9282604E-2],"split_indices":[12,9,4,4,20,15,9,29,9,21,4,0,10,28,10,0,0,0,0,0,0,0,0,0,0,0,0,0,0],"split_type":[0,0,0,0,0,0,0,0,0,0,0,0,0,0,0,0,0,0,0,0,0,0,0,0,0,0,0,0,0],"sum_hessian":[4.5779883E4,4.5045215E4,7.3466693E2,1.4645926E4,3.039929E4,5.513357E2,1.8333125E2,1.2580331E4,2.0655952E3,2.7841219E4,2.5580708E3,1.0996052E2,4.4137515E2,4.1406727E1,1.4192453E2,1.1056347E4,1.5239844E3,8.2030444E2,1.2452908E3,2.7288252E4,5.529675E2,1.961648E3,5.964229E2,7.11873E1,3.7018787E2,2.777869E1,1.3628035E1,5.2505257E1,8.941927E1],"tree_param":{"num_deleted":"0","num_feature":"36","num_nodes":"29","size_leaf_vector":"1"}},{"base_weights":[-4.1417913E-3,1.23857036E-1,-3.3157215E-1,1.9666131E-1,-1.6074908E-1,-4.3243182E-1,-5.9746232E-2,1.7170171E-1,9.12465E-1,-1.0964494E-2,-3.8305727E-1,-6.396449E-1,-2.4738745E-1,1.6326785E-1,-2.136015E-1,1.7189672E-3,2.0893723E-2,8.338423E-2,4.3550663E-2,-1.018857E-2,9.616925E-3,-2.6613018E-2,2.584655E-2,-5.50247E-2,-8.246118E-3,-5.133703E-3,-2.77222E-2,1.7713116E-2,-9.161052E-3,-3.3621509E-3,-2.3133626E-2],"categories":[],"categories_nodes":[],"categories_segments":[],"categories_sizes":[],"default_left":[0,0,0,0,0,0,0,0,0,0,0,0,0,0,0,0,0,0,0,0,0,0,0,0,0,0,0,0,0,0,0],"id":24,"left_children":[1,3,5,7,9,11,13,15,17,19,21,23,25,27,29,-1,-1,-1,-1,-1,-1,-1,-1,-1,-1,-1,-1,-1,-1,-1,-1],"loss_changes":[1.9137931E3,6.8028314E2,3.5182886E2,4.6691565E2,2.2269386E2,3.5875464E2,1.19246826E2,6.379517E2,7.742853E1,1.0874624E2,1.3273065E2,6.150259E2,1.7177591E2,5.92017E1,5.5696236E1,0E0,0E0,0E0,0E0,0E0,0E0,0E0,0E0,0E0,0E0,0E0,0E0,0E0,0E0,0E0,0E0],"parents":[2147483647,0,0,1,1,2,2,3,3,4,4,5,5,6,6,7,7,8,8,9,9,10,10,11,11,12,12,13,13,14,14],"right_children":[2,4,6,8,10,12,14,16,18,20,22,24,26,28,30,-1,-1,-1,-1,-1,-1,-1,-1,-1,-1,-1,-1,-1,-1,-1,-1],"split_conditions":[3.54E1,5.21E1,1E0,1E0,1.75E1,1E0,4.96E1,1E0,2.34E1,1E0,1E0,1E0,2.95E1,3.79E1,2.35E1,1.7189672E-3,2.0893723E-2,8.338423E-2,4.3550663E-2,-1.018857E-2,9.616925E-3,-2.6613018E-2,2.584655E-2,-5.50247E-2,-8.246118E-3,-5.133703E-3,-2.77222E-2,1.7713116E-2,-9.161052E-3,-3.3621509E-3,-2.3133626E-2],"split_indices":[5,6,17,17,5,15,5,15,5,15,17,16,6,6,6,0,0,0,0,0,0,0,0,0,0,0,0,0,0,0,0],"split_type":[0,0,0,0,0,0,0,0,0,0,0,0,0,0,0,0,0,0,0,0,0,0,0,0,0,0,0,0,0,0,0],"sum_hessian":[4.5661613E4,3.2828816E4,1.2832795E4,2.6141854E4,6.6869634E3,9.359433E3,3.4733625E3,2.5262217E4,8.7963635E2,3.9957778E3,2.6911855E3,4.4140796E3,4.945353E3,1.4179601E3,2.0554023E3,1.3954812E4,1.1307405E4,2.4545393E2,6.341824E2,2.072954E3,1.9228236E3,2.505411E3,1.8577461E2,2.8428118E3,1.5712677E3,2.820417E3,2.1249358E3,1.0002798E3,4.1768033E2,1.073282E3,9.8212036E2],"tree_param":{"num_deleted":"0","num_feature":"36","num_nodes":"31","size_leaf_vector":"1"}},{"base_weights":[-4.8747063E-3,1.5477403E-1,-1.09252386E-1,2.0531476E-1,-3.332326E-1,-1.6271292E-1,2.3260476E-1,2.7361426E-1,-2.3190542E-1,-6.6357267E-1,-1.8315606E-1,-3.0472964E-1,1.6334718E-2,4.7559732E-1,1.5471928E-1,5.1248753E-3,2.3225727E-2,6.8709074E-4,-2.3904877E-2,-5.5333696E-2,-3.2264873E-2,-1.8708488E-2,1.897756E-2,-2.6183655E-2,1.825719E-2,1.2851563E-2,-8.206829E-3,2.6002504E-2,5.796935E-2,5.834235E-3,2.2889286E-2],"categories":[],"categories_nodes":[],"categories_segments":[],"categories_sizes":[],"default_left":[0,0,0,0,0,0,0,0,0,0,0,0,0,0,0,0,0,0,0,0,0,0,0,0,0,0,0,0,0,0,0],"id":25,"left_children":[1,3,5,7,9,11,13,15,17,19,21,23,25,27,29,-1,-1,-1,-1,-1,-1,-1,-1,-1,-1,-1,-1,-1,-1,-1,-1],"loss_changes":[7.6033606E2,4.4496625E2,5.04267E2,4.881861E2,8.3821075E1,6.066958E2,7.054753E1,3.0191357E2,8.951611E1,1.670607E1,7.4997345E1,1.0670616E3,3.197846E2,1.833133E1,3.681662E1,0E0,0E0,0E0,0E0,0E0,0E0,0E0,0E0,0E0,0E0,0E0,0E0,0E0,0E0,0E0,0E0],"parents":[2147483647,0,0,1,1,2,2,3,3,4,4,5,5,6,6,7,7,8,8,9,9,10,10,11,11,12,12,13,13,14,14],"right_children":[2,4,6,8,10,12,14,16,18,20,22,24,26,28,30,-1,-1,-1,-1,-1,-1,-1,-1,-1,-1,-1,-1,-1,-1,-1,-1],"split_conditions":[5E0,1E0,1E0,1E0,3E0,1E0,1.65E1,2E0,2.4E1,2E0,1E0,1E0,2.7E1,1E0,1E0,5.1248753E-3,2.3225727E-2,6.8709074E-4,-2.3904877E-2,-5.5333696E-2,-3.2264873E-2,-1.8708488E-2,1.897756E-2,-2.6183655E-2,1.825719E-2,1.2851563E-2,-8.206829E-3,2.6002504E-2,5.796935E-2,5.834235E-3,2.2889286E-2],"split_indices":[9,31,16,29,9,15,6,9,6,9,17,20,6,28,3,0,0,0,0,0,0,0,0,0,0,0,0,0,0,0,0],"split_type":[0,0,0,0,0,0,0,0,0,0,0,0,0,0,0,0,0,0,0,0,0,0,0,0,0,0,0,0,0,0,0],"sum_hessian":[4.5626098E4,1.8037195E4,2.7588902E4,1.6344994E4,1.6922009E3,2.3858389E4,3.7305137E3,1.4136986E4,2.2080076E3,5.27555E2,1.164646E3,1.3304691E4,1.0553696E4,9.042535E2,2.82626E3,5.318471E3,8.818516E3,8.973872E2,1.3106204E3,1.7057587E2,3.569791E2,9.263936E2,2.3825235E2,1.093986E4,2.364831E3,4.6039707E3,5.949726E3,8.343267E2,6.9926796E1,2.2558655E3,5.703946E2],"tree_param":{"num_deleted":"0","num_feature":"36","num_nodes":"31","size_leaf_vector":"1"}},{"base_weights":[-6.2598623E-3,1.0285644E-1,-3.316498E-1,1.6091599E-1,-2.0978534E-1,-4.0390426E-1,1.2243803E0,1.492063E-1,1.0564151E-1,-8.4311016E-2,-5.0528824E-1,-3.426069E-1,-7.3521096E-1,1.4231342E0,1.0004426E0,5.7682744E-3,2.939513E-2,-1.439903E-2,4.60414E-3,-3.38413E-2,-1.39739355E-2,-1.1181952E-2,-2.6980419E-2,-4.542188E-2,3.8889383E-3,8.885696E-2,5.062586E-2,5.2822314E-2,9.3356624E-2],"categories":[],"categories_nodes":[],"categories_segments":[],"categories_sizes":[],"default_left":[0,0,0,0,0,0,0,0,0,0,0,0,0,0,0,0,0,0,0,0,0,0,0,0,0,0,0,0,0],"id":26,"left_children":[1,3,5,7,9,11,13,15,-1,17,19,21,23,25,27,-1,-1,-1,-1,-1,-1,-1,-1,-1,-1,-1,-1,-1,-1],"loss_changes":[1.6183616E3,6.196333E2,1.2874331E3,5.390326E2,1.9819762E2,2.2190747E2,2.1194763E1,5.167202E2,0E0,9.413839E1,2.5359955E1,1.5437268E2,2.984967E1,7.689392E0,1.4792816E1,0E0,0E0,0E0,0E0,0E0,0E0,0E0,0E0,0E0,0E0,0E0,0E0,0E0,0E0],"parents":[2147483647,0,0,1,1,2,2,3,3,4,4,5,5,6,6,7,7,9,9,10,10,11,11,12,12,13,13,14,14],"right_children":[2,4,6,8,10,12,14,16,-1,18,20,22,24,26,28,-1,-1,-1,-1,-1,-1,-1,-1,-1,-1,-1,-1,-1,-1],"split_conditions":[3.74E1,5.68E1,1E0,1E0,2.16E1,6.22E1,9.73E1,1E0,1.0564151E-1,1E0,1E0,2.29E1,1.215E2,1E0,1E0,5.7682744E-3,2.939513E-2,-1.439903E-2,4.60414E-3,-3.38413E-2,-1.39739355E-2,-1.1181952E-2,-2.6980419E-2,-4.542188E-2,3.8889383E-3,8.885696E-2,5.062586E-2,5.2822314E-2,9.3356624E-2],"split_indices":[5,6,12,12,5,5,5,16,0,15,16,6,10,32,1,0,0,0,0,0,0,0,0,0,0,0,0,0,0],"split_type":[0,0,0,0,0,0,0,0,0,0,0,0,0,0,0,0,0,0,0,0,0,0,0,0,0,0,0,0,0],"sum_hessian":[4.557882E4,3.4133254E4,1.1445566E4,2.8787686E4,5.345569E3,1.0938382E4,5.0718478E2,2.8579588E4,2.080975E2,3.753198E3,1.5923707E3,9.232286E3,1.706096E3,2.6586414E2,2.4132063E2,2.4729135E4,3.8504546E3,1.9081904E3,1.8450074E3,1.3090406E3,2.833301E2,3.7551658E3,5.47712E3,1.6608507E3,4.5245205E1,2.40326E2,2.5538132E1,2.0055565E2,4.0764984E1],"tree_param":{"num_deleted":"0","num_feature":"36","num_nodes":"29","size_leaf_vector":"1"}},{"base_weights":[-6.303948E-3,1.1691665E-1,-2.7818117E-1,9.461827E-2,8.9731324E-1,-3.7776065E-1,1.291111E-2,-2.7302675E-2,2.3738569E-1,1.1606634E0,7.014641E-1,-5.771015E-1,-2.0190558E-1,2.5081804E-1,-1.6051821E-1,-1.0367027E-2,2.5451152E-2,2.4069471E-2,6.105029E-3,2.2585092E-2,7.697673E-2,4.5213804E-2,-5.607422E-3,-5.5014066E-2,-3.0204842E-3,-1.9224612E-3,-2.2640536E-2,2.243424E-2,-2.7581484E-3,1.1189955E-2,-1.4022608E-2],"categories":[],"categories_nodes":[],"categories_segments":[],"categories_sizes":[],"default_left":[0,0,0,0,0,0,0,0,0,0,0,0,0,0,0,0,0,0,0,0,0,0,0,0,0,0,0,0,0,0,0],"id":27,"left_children":[1,3,5,7,9,11,13,15,17,19,21,23,25,27,29,-1,-1,-1,-1,-1,-1,-1,-1,-1,-1,-1,-1,-1,-1,-1,-1],"loss_changes":[1.5223922E3,5.440768E2,4.1082275E2,5.292156E2,4.3983826E1,3.7006982E2,1.4913168E2,1.0772606E3,3.110442E2,3.4895905E1,2.0804733E1,8.857914E2,1.6723152E2,5.5686188E1,5.3141117E1,0E0,0E0,0E0,0E0,0E0,0E0,0E0,0E0,0E0,0E0,0E0,0E0,0E0,0E0,0E0,0E0],"parents":[2147483647,0,0,1,1,2,2,3,3,4,4,5,5,6,6,7,7,8,8,9,9,10,10,11,11,12,12,13,13,14,14],"right_children":[2,4,6,8,10,12,14,16,18,20,22,24,26,28,30,-1,-1,-1,-1,-1,-1,-1,-1,-1,-1,-1,-1,-1,-1,-1,-1],"split_conditions":[3.22E1,1E0,1E0,1E0,2.42E1,1E0,4.84E1,1E0,2.7E1,8.9E0,6.6E1,1E0,2.74E1,3.9E1,8.1E0,-1.0367027E-2,2.5451152E-2,2.4069471E-2,6.105029E-3,2.2585092E-2,7.697673E-2,4.5213804E-2,-5.607422E-3,-5.5014066E-2,-3.0204842E-3,-1.9224612E-3,-2.2640536E-2,2.243424E-2,-2.7581484E-3,1.1189955E-2,-1.4022608E-2],"split_indices":[5,17,17,15,5,15,5,16,6,10,6,16,6,6,6,0,0,0,0,0,0,0,0,0,0,0,0,0,0,0,0],"split_type":[0,0,0,0,0,0,0,0,0,0,0,0,0,0,0,0,0,0,0,0,0,0,0,0,0,0,0,0,0,0,0],"sum_hessian":[4.544139E4,3.126981E4,1.4171581E4,3.0402244E4,8.6756647E2,1.0559123E4,3.612458E3,1.6398777E4,1.4003467E4,3.6791724E2,4.9964923E2,4.948011E3,5.6111113E3,1.5229115E3,2.0895464E3,1.2402873E4,3.995904E3,6.342855E3,7.6606123E3,5.0178745E1,3.177385E2,4.6896518E2,3.0684057E1,3.0073232E3,1.9406881E3,2.85143E3,2.7596814E3,1.0762858E3,4.466257E2,3.6368683E2,1.7258596E3],"tree_param":{"num_deleted":"0","num_feature":"36","num_nodes":"31","size_leaf_vector":"1"}},{"base_weights":[-2.9759977E-3,1.7645943E-1,-1.851462E-1,1.2842682E-1,5.3652793E-1,-2.231584E-1,1.2092717E0,-3.4367915E-2,2.8575227E-1,8.454877E-1,1.9878633E-1,-9.863441E-2,-4.7160992E-1,1.3839111E0,7.436846E-1,-1.2060043E-2,3.2560505E-2,1.4157064E-2,3.8138296E-2,4.1700583E-2,9.727186E-2,2.7137896E-2,-6.2337336E-3,-9.7262237E-4,-2.78948E-2,-2.406366E-2,-4.321625E-2,9.058462E-2,7.266747E-2,6.6618405E-2,2.2574028E-2],"categories":[],"categories_nodes":[],"categories_segments":[],"categories_sizes":[],"default_left":[0,0,0,0,0,0,0,0,0,0,0,0,0,0,0,0,0,0,0,0,0,0,0,0,0,0,0,0,0,0,0],"id":28,"left_children":[1,3,5,7,9,11,13,15,17,19,21,23,25,27,29,-1,-1,-1,-1,-1,-1,-1,-1,-1,-1,-1,-1,-1,-1,-1,-1],"loss_changes":[1.4825404E3,3.9510168E2,1.1931857E3,5.163646E2,2.8041882E2,6.777897E2,4.7544373E1,9.529112E2,1.7850183E2,1.6275824E2,9.872169E1,4.4064355E2,1.2802832E2,7.591736E0,2.1825935E1,0E0,0E0,0E0,0E0,0E0,0E0,0E0,0E0,0E0,0E0,0E0,0E0,0E0,0E0,0E0,0E0],"parents":[2147483647,0,0,1,1,2,2,3,3,4,4,5,5,6,6,7,7,8,8,9,9,10,10,11,11,12,12,13,13,14,14],"right_children":[2,4,6,8,10,12,14,16,18,20,22,24,26,28,30,-1,-1,-1,-1,-1,-1,-1,-1,-1,-1,-1,-1,-1,-1,-1,-1],"split_conditions":[2.14E1,1E0,1E0,1E0,3.11E1,4.52E1,1E0,1E0,8.96E1,9.45E1,1.03E1,5.08E1,6.22E1,8.86E1,9.73E1,-1.2060043E-2,3.2560505E-2,1.4157064E-2,3.8138296E-2,4.1700583E-2,9.727186E-2,2.7137896E-2,-6.2337336E-3,-9.7262237E-4,-2.78948E-2,-2.406366E-2,-4.321625E-2,9.058462E-2,7.266747E-2,6.6618405E-2,2.2574028E-2],"split_indices":[5,18,12,15,6,5,4,16,10,10,5,6,5,5,5,0,0,0,0,0,0,0,0,0,0,0,0,0,0,0,0],"split_type":[0,0,0,0,0,0,0,0,0,0,0,0,0,0,0,0,0,0,0,0,0,0,0,0,0,0,0,0,0,0,0],"sum_hessian":[4.5352562E4,2.2847795E4,2.2504768E4,2.0159855E4,2.687939E3,2.190838E4,5.963883E2,9.908095E3,1.0251761E4,1.4029984E3,1.2849406E3,1.4594839E4,7.3135415E3,4.3227258E2,1.6411574E2,7.688529E3,2.219566E3,8.975853E3,1.2759078E3,1.1766409E3,2.2635753E2,6.989984E2,5.8594214E2,1.1914707E4,2.6801316E3,5.699203E3,1.6143386E3,2.4564381E2,1.8662877E2,8.113853E1,8.297721E1],"tree_param":{"num_deleted":"0","num_feature":"36","num_nodes":"31","size_leaf_vector":"1"}},{"base_weights":[-8.490645E-3,1.7162769E-1,-1.6180333E-1,1.2265405E-1,5.1046497E-1,-1.9550605E-1,1.1628668E0,-2.6377795E-2,2.6358816E-1,7.1604E-1,1.5804836E-1,-1.0281487E-1,-4.895687E-1,1.3492491E0,6.757969E-1,-1.00549115E-2,2.9290797E-2,1.3098541E-2,3.620781E-2,3.402045E-2,6.86502E-2,6.1334495E-2,4.334718E-3,-1.5896488E-3,-2.5581127E-2,-2.6070261E-2,-4.894858E-2,9.408748E-2,5.9944328E-2,5.8598474E-2,2.0955952E-2],"categories":[],"categories_nodes":[],"categories_segments":[],"categories_sizes":[],"default_left":[0,0,0,0,0,0,0,0,0,0,0,0,0,0,0,0,0,0,0,0,0,0,0,0,0,0,0,0,0,0,0],"id":29,"left_children":[1,3,5,7,9,11,13,15,17,19,21,23,25,27,29,-1,-1,-1,-1,-1,-1,-1,-1,-1,-1,-1,-1,-1,-1,-1,-1],"loss_changes":[1.2507733E3,3.4553333E2,1.0925898E3,3.8222653E2,1.9040308E2,6.503439E2,5.4211975E1,6.4278845E2,1.4380511E2,1.0530505E2,7.186052E1,4.4801202E2,1.023739E2,3.2016296E1,1.636419E1,0E0,0E0,0E0,0E0,0E0,0E0,0E0,0E0,0E0,0E0,0E0,0E0,0E0,0E0,0E0,0E0],"parents":[2147483647,0,0,1,1,2,2,3,3,4,4,5,5,6,6,7,7,8,8,9,9,10,10,11,11,12,12,13,13,14,14],"right_children":[2,4,6,8,10,12,14,16,18,20,22,24,26,28,30,-1,-1,-1,-1,-1,-1,-1,-1,-1,-1,-1,-1,-1,-1,-1,-1],"split_conditions":[1.91E1,1E0,1E0,1E0,3.9E1,4.96E1,1E0,1E0,9.2E1,5.26E1,5.8E0,4.94E1,6.8E1,1E0,9.73E1,-1.00549115E-2,2.9290797E-2,1.3098541E-2,3.620781E-2,3.402045E-2,6.86502E-2,6.1334495E-2,4.334718E-3,-1.5896488E-3,-2.5581127E-2,-2.6070261E-2,-4.894858E-2,9.408748E-2,5.9944328E-2,5.8598474E-2,2.0955952E-2],"split_indices":[5,18,12,15,6,5,4,16,10,10,5,6,5,3,5,0,0,0,0,0,0,0,0,0,0,0,0,0,0,0,0],"split_type":[0,0,0,0,0,0,0,0,0,0,0,0,0,0,0,0,0,0,0,0,0,0,0,0,0,0,0,0,0,0,0],"sum_hessian":[4.5292195E4,2.0825445E4,2.4466748E4,1.8196752E4,2.6286943E3,2.3860533E4,6.062157E2,8.844686E3,9.352066E3,1.6595802E3,9.691141E2,1.8143035E4,5.717498E3,4.3716125E2,1.6905444E2,6.9407036E3,1.9039816E3,8.254077E3,1.0979889E3,1.2327745E3,4.2680557E2,8.654404E1,8.8257007E2,1.4680957E4,3.4620776E3,4.8938286E3,8.2366956E2,2.668749E2,1.7028635E2,8.69518E1,8.2102646E1],"tree_param":{"num_deleted":"0","num_feature":"36","num_nodes":"31","size_leaf_vector":"1"}},{"base_weights":[-7.0293836E-4,-1.9965941E-2,1.1948872E0,1.2593192E-1,-1.187606E-1,1.3432614E0,7.937816E-1,1.8112868E-1,-2.2540769E-1,-1.6204344E-1,3.2734367E-1,9.252553E-2,1.022364E0,6.109396E-1,1.2183448E0,1.4111752E-2,-1.2078384E-2,-4.8830252E-2,3.8799914E-3,-1.3268395E-2,9.369386E-3,2.6169617E-2,-2.6342531E-3,5.0827593E-2,8.349105E-2,-6.1948057E-3,4.196412E-2,7.889669E-2,4.996721E-2],"categories":[],"categories_nodes":[],"categories_segments":[],"categories_sizes":[],"default_left":[0,0,0,0,0,0,0,0,0,0,0,0,0,0,0,0,0,0,0,0,0,0,0,0,0,0,0,0,0],"id":30,"left_children":[1,3,5,7,9,11,13,15,17,19,21,-1,23,25,27,-1,-1,-1,-1,-1,-1,-1,-1,-1,-1,-1,-1,-1,-1],"loss_changes":[1.0406671E3,6.409974E2,4.15744E1,3.4824103E2,5.120325E2,3.170166E1,1.4464081E1,3.2091278E2,4.162369E2,4.545597E2,9.477022E1,0E0,1.1920975E1,8.850609E0,1.0639648E0,0E0,0E0,0E0,0E0,0E0,0E0,0E0,0E0,0E0,0E0,0E0,0E0,0E0,0E0],"parents":[2147483647,0,0,1,1,2,2,3,3,4,4,5,5,6,6,7,7,8,8,9,9,10,10,12,12,13,13,14,14],"right_children":[2,4,6,8,10,12,14,16,18,20,22,-1,24,26,28,-1,-1,-1,-1,-1,-1,-1,-1,-1,-1,-1,-1,-1,-1],"split_conditions":[1E0,5E0,1E0,1E0,1E0,1E0,9.95E1,1E0,2E0,1E0,1E0,9.252553E-2,1.059E2,3E0,1.455E2,1.4111752E-2,-1.2078384E-2,-4.8830252E-2,3.8799914E-3,-1.3268395E-2,9.369386E-3,2.6169617E-2,-2.6342531E-3,5.0827593E-2,8.349105E-2,-6.1948057E-3,4.196412E-2,7.889669E-2,4.996721E-2],"split_indices":[12,9,4,4,20,3,10,29,9,16,4,0,10,9,10,0,0,0,0,0,0,0,0,0,0,0,0,0,0],"split_type":[0,0,0,0,0,0,0,0,0,0,0,0,0,0,0,0,0,0,0,0,0,0,0,0,0,0,0,0,0],"sum_hessian":[4.5184137E4,4.4468656E4,7.1548285E2,1.795412E4,2.6514535E4,5.2056866E2,1.9491417E2,1.5516849E4,2.4372705E3,2.4170092E4,2.3444429E3,3.1906665E2,2.0150204E2,1.3794563E2,5.696854E1,1.3595197E4,1.921651E3,8.041688E2,1.6331017E3,2.0384553E4,3.7855398E3,1.8128909E3,5.31552E2,1.3887344E2,6.2628586E1,1.5184999E1,1.22760635E2,4.3627365E1,1.3341175E1],"tree_param":{"num_deleted":"0","num_feature":"36","num_nodes":"29","size_leaf_vector":"1"}},{"base_weights":[-5.7455804E-3,-2.4026377E-2,1.129873E0,8.332397E-2,-1.2742373E-1,1.2884728E0,7.2008663E-1,4.203272E-2,4.212475E-1,-1.5390179E-1,2.6144186E-1,8.956369E-2,9.6798915E-1,5.4042476E-1,1.1422633E0,-5.5049094E-3,1.2303049E-2,3.4376044E-2,-1.0082584E-2,-1.1816429E-2,5.385164E-3,-6.624179E-3,2.7102279E-2,4.3057743E-2,7.691844E-2,3.5867196E-2,4.303219E-3,5.538656E-2,8.2782716E-2],"categories":[],"categories_nodes":[],"categories_segments":[],"categories_sizes":[],"default_left":[0,0,0,0,0,0,0,0,0,0,0,0,0,0,0,0,0,0,0,0,0,0,0,0,0,0,0,0,0],"id":31,"left_children":[1,3,5,7,9,11,13,15,17,19,21,-1,23,25,27,-1,-1,-1,-1,-1,-1,-1,-1,-1,-1,-1,-1,-1,-1],"loss_changes":[9.361267E2,4.925959E2,4.550171E1,3.0379337E2,2.3279703E2,3.2187378E1,1.4674332E1,4.2319003E2,2.120087E2,2.2196768E2,1.0203167E2,0E0,1.502475E1,3.8104057E0,1.8114853E0,0E0,0E0,0E0,0E0,0E0,0E0,0E0,0E0,0E0,0E0,0E0,0E0,0E0,0E0],"parents":[2147483647,0,0,1,1,2,2,3,3,4,4,5,5,6,6,7,7,8,8,9,9,10,10,12,12,13,13,14,14],"right_children":[2,4,6,8,10,12,14,16,18,20,22,-1,24,26,28,-1,-1,-1,-1,-1,-1,-1,-1,-1,-1,-1,-1,-1,-1],"split_conditions":[1E0,2.7E1,1E0,1E0,1E0,1E0,9.95E1,1E0,1E0,1E0,1E0,8.956369E-2,8.25E1,1E0,1.305E2,-5.5049094E-3,1.2303049E-2,3.4376044E-2,-1.0082584E-2,-1.1816429E-2,5.385164E-3,-6.624179E-3,2.7102279E-2,4.3057743E-2,7.691844E-2,3.5867196E-2,4.303219E-3,5.538656E-2,8.2782716E-2],"split_indices":[12,6,4,20,11,3,10,15,4,16,7,0,10,27,10,0,0,0,0,0,0,0,0,0,0,0,0,0,0],"split_type":[0,0,0,0,0,0,0,0,0,0,0,0,0,0,0,0,0,0,0,0,0,0,0,0,0,0,0,0,0],"sum_hessian":[4.509047E4,4.4377082E4,7.1338806E2,2.1772445E4,2.2604635E4,5.127818E2,2.0060626E2,1.9402729E4,2.3697166E3,2.116416E4,1.4404746E3,3.109468E2,2.0183504E2,1.4232037E2,5.8285877E1,1.0657259E4,8.74547E3,1.8846301E3,4.8508633E2,1.7987139E4,3.1770232E3,4.8771545E2,9.5275916E2,1.14123024E2,8.7712006E1,1.2655651E2,1.57638645E1,3.2852337E1,2.5433542E1],"tree_param":{"num_deleted":"0","num_feature":"36","num_nodes":"29","size_leaf_vector":"1"}},{"base_weights":[-4.654802E-3,1.4625002E-1,-1.7474703E-1,1.3283327E-1,1.1787949E0,-2.0601206E-1,9.679765E-1,8.7776616E-2,4.6215966E-1,4.0152964E-1,1.3100473E0,-2.880383E-1,1.327677E-1,1.160723E0,5.249627E-1,-4.7639697E-3,1.4565151E-2,3.9773416E-2,6.8317275E-3,5.23398E-3,9.967109E-2,6.969373E-2,1.2438139E-1,-9.198074E-3,-3.5383616E-2,2.6659764E-2,-2.3826095E-3,8.554858E-2,4.5922037E-2,-2.950161E-2,3.6868274E-2],"categories":[],"categories_nodes":[],"categories_segments":[],"categories_sizes":[],"default_left":[0,0,0,0,0,0,0,0,0,0,0,0,0,0,0,0,0,0,0,0,0,0,0,0,0,0,0,0,0,0,0],"id":32,"left_children":[1,3,5,7,9,11,13,15,17,19,21,23,25,27,29,-1,-1,-1,-1,-1,-1,-1,-1,-1,-1,-1,-1,-1,-1,-1,-1],"loss_changes":[1.1555814E3,3.3032907E2,7.56361E2,3.4941833E2,3.0678986E1,5.7254395E2,4.753534E1,5.3678564E2,1.9806879E2,1.7920925E1,2.718872E1,6.74126E2,2.1585757E2,3.999823E1,1.6023495E1,0E0,0E0,0E0,0E0,0E0,0E0,0E0,0E0,0E0,0E0,0E0,0E0,0E0,0E0,0E0,0E0],"parents":[2147483647,0,0,1,1,2,2,3,3,4,4,5,5,6,6,7,7,8,8,9,9,10,10,11,11,12,12,13,13,14,14],"right_children":[2,4,6,8,10,12,14,16,18,20,22,24,26,28,30,-1,-1,-1,-1,-1,-1,-1,-1,-1,-1,-1,-1,-1,-1,-1,-1],"split_conditions":[2.21E1,1E0,1E0,1E0,7.8E0,1E0,1E0,1E0,3.9E1,7E0,1E0,4.32E1,4.16E1,1E0,3E0,-4.7639697E-3,1.4565151E-2,3.9773416E-2,6.8317275E-3,5.23398E-3,9.967109E-2,6.969373E-2,1.2438139E-1,-9.198074E-3,-3.5383616E-2,2.6659764E-2,-2.3826095E-3,8.554858E-2,4.5922037E-2,-2.950161E-2,3.6868274E-2],"split_indices":[5,17,12,18,5,17,4,15,6,9,2,5,5,3,9,0,0,0,0,0,0,0,0,0,0,0,0,0,0,0,0],"split_type":[0,0,0,0,0,0,0,0,0,0,0,0,0,0,0,0,0,0,0,0,0,0,0,0,0,0,0,0,0,0,0],"sum_hessian":[4.5018777E4,2.385495E4,2.1163828E4,2.355007E4,3.0487756E2,2.0601002E4,5.628255E2,2.0716955E4,2.8331155E3,4.4631695E1,2.6024585E2,1.6585441E4,4.015561E3,3.910621E2,1.7176343E2,9.966427E3,1.0750529E4,1.796725E3,1.0363905E3,3.6575092E1,8.0566025E0,2.19961E2,4.0284855E1,1.1466085E4,5.1193564E3,1.4303036E3,2.5852576E3,2.3253833E2,1.5852377E2,1.3535152E1,1.5822827E2],"tree_param":{"num_deleted":"0","num_feature":"36","num_nodes":"31","size_leaf_vector":"1"}},{"base_weights":[-3.2537754E-4,-1.661808E-2,1.0602306E0,-3.2588314E-2,8.71193E-1,1.2297025E0,6.333239E-1,-7.575494E-2,2.3951979E-1,1.0438497E0,1.1850102E-1,8.545022E-2,9.351805E-1,-2.3546757E-2,7.207483E-1,-1.4022389E-2,4.638349E-3,3.0197786E-2,9.939518E-3,7.903151E-2,2.6658088E-2,-4.326201E-2,1.7832678E-2,4.392727E-2,7.4212E-2,3.4083784E-2,6.2361043E-2],"categories":[],"categories_nodes":[],"categories_segments":[],"categories_sizes":[],"default_left":[0,0,0,0,0,0,0,0,0,0,0,0,0,0,0,0,0,0,0,0,0,0,0,0,0,0,0],"id":33,"left_children":[1,3,5,7,9,11,13,15,17,19,21,-1,23,-1,25,-1,-1,-1,-1,-1,-1,-1,-1,-1,-1,-1,-1],"loss_changes":[7.768728E2,6.2784644E2,4.843567E1,5.1094455E2,1.0156445E2,2.6496643E1,1.7802605E1,9.076664E2,1.1595395E2,1.037005E2,2.2288174E1,0E0,1.1110153E1,0E0,8.184044E0,0E0,0E0,0E0,0E0,0E0,0E0,0E0,0E0,0E0,0E0,0E0,0E0],"parents":[2147483647,0,0,1,1,2,2,3,3,4,4,5,5,6,6,7,7,8,8,9,9,10,10,12,12,14,14],"right_children":[2,4,6,8,10,12,14,16,18,20,22,-1,24,-1,26,-1,-1,-1,-1,-1,-1,-1,-1,-1,-1,-1,-1],"split_conditions":[1E0,1E0,1E0,1E0,1E0,1E0,3E0,1E0,1.35E1,1E0,2E0,8.545022E-2,8.96E1,-2.3546757E-2,9.95E1,-1.4022389E-2,4.638349E-3,3.0197786E-2,9.939518E-3,7.903151E-2,2.6658088E-2,-4.326201E-2,1.7832678E-2,4.392727E-2,7.4212E-2,3.4083784E-2,6.2361043E-2],"split_indices":[12,21,4,16,4,3,9,15,6,3,9,0,10,0,10,0,0,0,0,0,0,0,0,0,0,0,0],"split_type":[0,0,0,0,0,0,0,0,0,0,0,0,0,0,0,0,0,0,0,0,0,0,0,0,0,0,0],"sum_hessian":[4.495766E4,4.4278418E4,6.7923926E2,4.3496945E4,7.814738E2,4.848748E2,1.9436446E2,3.7542074E4,5.95487E3,6.353475E2,1.4612637E2,2.8973334E2,1.9514145E2,1.4990346E1,1.7937411E2,1.8475598E4,1.9066479E4,1.3014067E3,4.6534634E3,4.355688E2,1.9977866E2,2.5113766E1,1.2101261E2,1.1868413E2,7.645731E1,1.23142845E2,5.623127E1],"tree_param":{"num_deleted":"0","num_feature":"36","num_nodes":"27","size_leaf_vector":"1"}},{"base_weights":[-4.2694537E-3,-1.9706516E-2,1.0168034E0,-3.5130985E-2,8.1221426E-1,1.178673E0,6.0775954E-1,-6.669868E-2,3.42254E-1,9.521073E-1,1.7690705E-1,8.3351605E-2,8.7855375E-1,4.4459522E-1,1.0082486E0,-1.1300322E-2,3.9666444E-3,2.8777644E-2,-9.9170115E-3,6.9856465E-2,2.7747383E-2,-4.4363298E-2,2.1756977E-2,4.026012E-2,6.7152195E-2,-1.1614651E-2,3.135773E-2,7.195242E-2,3.705396E-2],"categories":[],"categories_nodes":[],"categories_segments":[],"categories_sizes":[],"default_left":[0,0,0,0,0,0,0,0,0,0,0,0,0,0,0,0,0,0,0,0,0,0,0,0,0,0,0,0,0],"id":34,"left_children":[1,3,5,7,9,11,13,15,17,19,21,-1,23,25,27,-1,-1,-1,-1,-1,-1,-1,-1,-1,-1,-1,-1,-1,-1],"loss_changes":[7.0788776E2,5.677246E2,4.3569946E1,5.174894E2,7.1408875E1,2.8989868E1,1.2078758E1,6.475736E2,2.338642E2,6.80072E1,2.5208416E1,0E0,9.2308655E0,6.973387E0,3.3406334E0,0E0,0E0,0E0,0E0,0E0,0E0,0E0,0E0,0E0,0E0,0E0,0E0,0E0,0E0],"parents":[2147483647,0,0,1,1,2,2,3,3,4,4,5,5,6,6,7,7,8,8,9,9,10,10,12,12,13,13,14,14],"right_children":[2,4,6,8,10,12,14,16,18,20,22,-1,24,26,28,-1,-1,-1,-1,-1,-1,-1,-1,-1,-1,-1,-1,-1,-1],"split_conditions":[1E0,1E0,1E0,1E0,1E0,1E0,9.95E1,1E0,1E0,1E0,2E0,8.3351605E-2,7.88E1,3E0,3.11E1,-1.1300322E-2,3.9666444E-3,2.8777644E-2,-9.9170115E-3,6.9856465E-2,2.7747383E-2,-4.4363298E-2,2.1756977E-2,4.026012E-2,6.7152195E-2,-1.1614651E-2,3.135773E-2,7.195242E-2,3.705396E-2],"split_indices":[12,21,4,20,4,3,10,15,4,3,9,0,10,9,6,0,0,0,0,0,0,0,0,0,0,0,0,0,0],"split_type":[0,0,0,0,0,0,0,0,0,0,0,0,0,0,0,0,0,0,0,0,0,0,0,0,0,0,0,0,0],"sum_hessian":[4.4907727E4,4.423987E4,6.678586E2,4.34355E4,8.043707E2,4.7715424E2,1.9070435E2,4.0083406E4,3.3520935E3,6.5880493E2,1.4556581E2,2.7830603E2,1.988482E2,1.3699925E2,5.3705082E1,2.0921242E4,1.9162164E4,2.6381025E3,7.1399084E2,4.5867984E2,2.0012509E2,2.4028248E1,1.2153756E2,1.0880016E2,9.004804E1,1.4765301E1,1.22233955E2,3.468311E1,1.9021975E1],"tree_param":{"num_deleted":"0","num_feature":"36","num_nodes":"29","size_leaf_vector":"1"}},{"base_weights":[-6.8252126E-4,-1.5070693E-2,9.5182914E-1,1.0947372E-1,-1.0103486E-1,1.1385499E0,5.2572554E-1,6.806086E-2,4.8820898E-1,-1.4006145E-1,2.8389406E-1,8.1513554E-2,8.405098E-1,4.0277398E-1,1.0092745E0,6.8178135E-3,-1.3988617E-2,8.567935E-2,2.5067966E-2,-1.0548719E-2,5.43973E-3,2.1784509E-2,-2.0191536E-4,3.99624E-2,7.070363E-2,-3.6418922E-2,2.750843E-2,7.340462E-2,8.157235E-3],"categories":[],"categories_nodes":[],"categories_segments":[],"categories_sizes":[],"default_left":[0,0,0,0,0,0,0,0,0,0,0,0,0,0,0,0,0,0,0,0,0,0,0,0,0,0,0,0,0],"id":35,"left_children":[1,3,5,7,9,11,13,15,17,19,21,-1,23,25,27,-1,-1,-1,-1,-1,-1,-1,-1,-1,-1,-1,-1,-1,-1],"loss_changes":[6.148762E2,4.732079E2,5.2519653E1,2.8306055E2,3.9286957E2,2.9240906E1,1.1797871E1,2.2336218E2,1.1711255E2,1.9585995E2,5.4760635E1,0E0,1.0970047E1,9.576815E0,7.4917526E0,0E0,0E0,0E0,0E0,0E0,0E0,0E0,0E0,0E0,0E0,0E0,0E0,0E0,0E0],"parents":[2147483647,0,0,1,1,2,2,3,3,4,4,5,5,6,6,7,7,8,8,9,9,10,10,12,12,13,13,14,14],"right_children":[2,4,6,8,10,12,14,16,18,20,22,-1,24,26,28,-1,-1,-1,-1,-1,-1,-1,-1,-1,-1,-1,-1,-1,-1],"split_conditions":[1E0,5E0,1E0,1E0,1E0,1E0,1.16E2,1E0,1E0,1E0,1E0,8.1513554E-2,1.017E2,2E0,4.62E1,6.8178135E-3,-1.3988617E-2,8.567935E-2,2.5067966E-2,-1.0548719E-2,5.43973E-3,2.1784509E-2,-2.0191536E-4,3.99624E-2,7.070363E-2,-3.6418922E-2,2.750843E-2,7.340462E-2,8.157235E-3],"split_indices":[12,9,4,18,20,3,10,4,9,4,4,0,10,9,6,0,0,0,0,0,0,0,0,0,0,0,0,0,0],"split_type":[0,0,0,0,0,0,0,0,0,0,0,0,0,0,0,0,0,0,0,0,0,0,0,0,0,0,0,0,0],"sum_hessian":[4.486338E4,4.419675E4,6.6663007E2,1.8048258E4,2.614849E4,4.6235275E2,2.0427731E2,1.6270354E4,1.7779042E3,2.3742008E4,2.406483E3,2.6395E2,1.9840276E2,1.6432698E2,3.995032E1,1.4132815E4,2.1375376E3,1.22574814E2,1.6553293E3,2.0556953E4,3.1850544E3,1.8862789E3,5.202041E2,1.3280092E2,6.560184E1,8.073264E0,1.5625372E2,3.1761595E1,8.188727E0],"tree_param":{"num_deleted":"0","num_feature":"36","num_nodes":"29","size_leaf_vector":"1"}},{"base_weights":[-2.4593798E-3,7.793251E-2,-2.6926166E-1,5.3902216E-2,6.784779E-1,-3.9472812E-1,4.7599416E-2,2.4146064E-1,-2.0402793E-2,1.0159204E0,5.4770523E-1,-5.9638053E-1,-2.2814183E-1,1.2967347E-1,-3.518186E-1,-8.3731906E-4,2.0461515E-2,-1.0402143E-2,8.792783E-3,6.633522E-2,1.4181194E-2,3.5325624E-2,-1.778867E-2,-3.71244E-2,1.17148206E-1,-8.593979E-3,-2.974995E-2,2.5826018E-2,7.2752446E-4,-1.2717793E-2,-4.210494E-2],"categories":[],"categories_nodes":[],"categories_segments":[],"categories_sizes":[],"default_left":[0,0,0,0,0,0,0,0,0,0,0,0,0,0,0,0,0,0,0,0,0,0,0,0,0,0,0,0,0,0,0],"id":36,"left_children":[1,3,5,7,9,11,13,15,17,19,21,23,25,27,29,-1,-1,-1,-1,-1,-1,-1,-1,-1,-1,-1,-1,-1,-1,-1,-1],"loss_changes":[9.597662E2,4.9619684E2,4.119267E2,4.6080316E2,5.782074E1,2.4919543E2,9.6418E1,2.3859698E2,6.048295E2,2.5484497E1,3.3293304E1,1.9253247E2,9.234938E1,8.623769E1,2.438873E1,0E0,0E0,0E0,0E0,0E0,0E0,0E0,0E0,0E0,0E0,0E0,0E0,0E0,0E0,0E0,0E0],"parents":[2147483647,0,0,1,1,2,2,3,3,4,4,5,5,6,6,7,7,8,8,9,9,10,10,11,11,12,12,13,13,14,14],"right_children":[2,4,6,8,10,12,14,16,18,20,22,24,26,28,30,-1,-1,-1,-1,-1,-1,-1,-1,-1,-1,-1,-1,-1,-1,-1,-1],"split_conditions":[3.71E1,1E0,1E0,1.03E1,2.38E1,1E0,6.04E1,2E0,1E0,1E0,6.6E1,1E0,3.69E1,1.44E1,6.8E1,-8.3731906E-4,2.0461515E-2,-1.0402143E-2,8.792783E-3,6.633522E-2,1.4181194E-2,3.5325624E-2,-1.778867E-2,-3.71244E-2,1.17148206E-1,-8.593979E-3,-2.974995E-2,2.5826018E-2,7.2752446E-4,-1.2717793E-2,-4.210494E-2],"split_indices":[5,17,17,5,5,15,5,9,15,4,6,21,6,6,5,0,0,0,0,0,0,0,0,0,0,0,0,0,0,0,0],"split_type":[0,0,0,0,0,0,0,0,0,0,0,0,0,0,0,0,0,0,0,0,0,0,0,0,0,0,0,0,0,0,0],"sum_hessian":[4.4745E4,3.4384957E4,1.0360043E4,3.306306E4,1.3218993E3,7.421234E3,2.9388083E3,9.381164E3,2.3681895E4,3.673164E2,9.545829E2,3.3561003E3,4.0651338E3,2.438426E3,5.003824E2,2.631462E3,6.749702E3,1.2358474E4,1.1323421E4,3.290504E2,3.826597E1,9.1060016E2,4.3982754E1,3.327666E3,2.8434267E1,3.0873818E3,9.77752E2,6.844698E2,1.7539563E3,3.5864844E2,1.4173395E2],"tree_param":{"num_deleted":"0","num_feature":"36","num_nodes":"31","size_leaf_vector":"1"}},{"base_weights":[-2.6136215E-3,-1.6382106E-2,7.09635E-1,-5.7910368E-2,2.4890295E-1,5.539981E-1,1.165187E0,-2.1691501E-1,8.88885E-2,3.2983395E-1,4.031083E-2,4.0442008E-1,1.2334316E0,1.054413E0,2.0817845E0,-2.021569E-2,2.0147868E-2,1.6081335E-2,1.0861555E-3,3.4524385E-2,1.5914842E-2,9.000815E-3,-7.884264E-3,1.6575228E-2,4.112423E-2,2.9486433E-2,8.9609064E-2,9.968243E-2,5.7258356E-2,8.281489E-2,1.4775157E-1],"categories":[],"categories_nodes":[],"categories_segments":[],"categories_sizes":[],"default_left":[0,0,0,0,0,0,0,0,0,0,0,0,0,0,0,0,0,0,0,0,0,0,0,0,0,0,0,0,0,0,0],"id":37,"left_children":[1,3,5,7,9,11,13,15,17,19,21,23,25,27,29,-1,-1,-1,-1,-1,-1,-1,-1,-1,-1,-1,-1,-1,-1,-1,-1],"loss_changes":[4.387345E2,4.835445E2,5.9509796E1,8.858432E2,1.00278046E2,6.3963806E1,1.9649902E1,1.2085681E3,2.5021521E2,6.773221E1,3.1324173E1,1.8585472E1,2.125505E1,1.0200668E1,2.523178E0,0E0,0E0,0E0,0E0,0E0,0E0,0E0,0E0,0E0,0E0,0E0,0E0,0E0,0E0,0E0,0E0],"parents":[2147483647,0,0,1,1,2,2,3,3,4,4,5,5,6,6,7,7,8,8,9,9,10,10,11,11,12,12,13,13,14,14],"right_children":[2,4,6,8,10,12,14,16,18,20,22,24,26,28,30,-1,-1,-1,-1,-1,-1,-1,-1,-1,-1,-1,-1,-1,-1,-1,-1],"split_conditions":[1E0,1E0,1E0,1E0,1E0,1E0,1E0,1E0,1.58E1,1.17E1,3.59E1,1E0,-2.1E1,3.6E0,1.55E1,-2.021569E-2,2.0147868E-2,1.6081335E-2,1.0861555E-3,3.4524385E-2,1.5914842E-2,9.000815E-3,-7.884264E-3,1.6575228E-2,4.112423E-2,2.9486433E-2,8.9609064E-2,9.968243E-2,5.7258356E-2,8.281489E-2,1.4775157E-1],"split_indices":[21,16,1,15,31,0,7,18,6,6,6,2,14,6,6,0,0,0,0,0,0,0,0,0,0,0,0,0,0,0,0],"split_type":[0,0,0,0,0,0,0,0,0,0,0,0,0,0,0,0,0,0,0,0,0,0,0,0,0,0,0,0,0,0,0],"sum_hessian":[4.473659E4,4.3889145E4,8.474444E2,3.794927E4,5.9398745E3,6.332978E2,2.1414664E2,1.8217057E4,1.9732213E4,4.27907E3,1.6608043E3,5.2033966E2,1.12958115E2,1.9297525E2,2.117139E1,1.4967484E4,3.249571E3,5.5880576E3,1.4144155E4,8.8941376E2,3.3896562E3,1.0134643E3,6.4734E2,3.5870514E2,1.6163449E2,3.0065126E1,8.289299E1,2.5113451E1,1.678618E2,9.075141E0,1.209625E1],"tree_param":{"num_deleted":"0","num_feature":"36","num_nodes":"31","size_leaf_vector":"1"}},{"base_weights":[-4.294453E-3,6.892961E-2,-2.703845E-1,4.574599E-2,6.110111E-1,-3.2326487E-1,7.879414E-1,1.3847244E-1,-9.558932E-2,8.4555626E-1,4.459019E-1,-4.795294E-1,3.5011474E-2,9.986413E-1,3.7991413E-1,6.0670163E-2,7.3590884E-3,-6.318681E-3,7.404374E-2,3.701848E-2,6.182669E-2,3.1251784E-2,4.9452465E-3,-1.88303E-2,-3.7640292E-2,6.5500923E-3,-2.4848409E-2,5.3796504E-2,7.674601E-2,2.8913578E-2,-2.2266831E-2],"categories":[],"categories_nodes":[],"categories_segments":[],"categories_sizes":[],"default_left":[0,0,0,0,0,0,0,0,0,0,0,0,0,0,0,0,0,0,0,0,0,0,0,0,0,0,0,0,0,0,0],"id":38,"left_children":[1,3,5,7,9,11,13,15,17,19,21,23,25,27,29,-1,-1,-1,-1,-1,-1,-1,-1,-1,-1,-1,-1,-1,-1,-1,-1],"loss_changes":[8.7070667E2,4.403875E2,5.3995825E2,4.4046402E2,5.5279846E1,5.142713E2,3.9099976E1,2.8007635E2,1.7224953E2,2.4410461E1,2.2996384E1,1.5644275E2,9.299078E1,7.5014954E0,1.2279449E1,0E0,0E0,0E0,0E0,0E0,0E0,0E0,0E0,0E0,0E0,0E0,0E0,0E0,0E0,0E0,0E0],"parents":[2147483647,0,0,1,1,2,2,3,3,4,4,5,5,6,6,7,7,8,8,9,9,10,10,11,11,12,12,13,13,14,14],"right_children":[2,4,6,8,10,12,14,16,18,20,22,24,26,28,30,-1,-1,-1,-1,-1,-1,-1,-1,-1,-1,-1,-1,-1,-1,-1,-1],"split_conditions":[3.82E1,1E0,1E0,1.84E1,2.81E1,1E0,1E0,4.5E0,1E0,2.78E1,1E0,5.02E1,6.13E1,1E0,1.667E2,6.0670163E-2,7.3590884E-3,-6.318681E-3,7.404374E-2,3.701848E-2,6.182669E-2,3.1251784E-2,4.9452465E-3,-1.88303E-2,-3.7640292E-2,6.5500923E-3,-2.4848409E-2,5.3796504E-2,7.674601E-2,2.8913578E-2,-2.2266831E-2],"split_indices":[5,17,12,5,5,17,4,5,12,10,4,5,5,1,5,0,0,0,0,0,0,0,0,0,0,0,0,0,0,0,0],"split_type":[0,0,0,0,0,0,0,0,0,0,0,0,0,0,0,0,0,0,0,0,0,0,0,0,0,0,0,0,0,0,0],"sum_hessian":[4.468589E4,3.5043246E4,9.642645E3,3.360703E4,1.4362136E3,9.18443E3,4.5821536E2,2.0293205E4,1.3313828E4,5.916403E2,8.445733E2,6.39491E3,2.7895195E3,3.0122122E2,1.5699413E2,3.602211E2,1.9932984E4,1.3218102E4,9.5726105E1,2.6649908E2,3.2514124E2,6.998163E2,1.4475699E2,3.0165422E3,3.378368E3,2.3948733E3,3.9464624E2,2.2394534E2,7.7275894E1,1.3854063E2,1.8453482E1],"tree_param":{"num_deleted":"0","num_feature":"36","num_nodes":"31","size_leaf_vector":"1"}},{"base_weights":[-2.4282902E-3,5.9048887E-2,-2.770005E-1,9.6739374E-2,-2.86277E-1,-3.3340803E-1,7.196856E-1,5.4294784E-2,3.5418352E-1,-1.8137635E-1,-5.6664664E-1,-2.6173022E-1,-6.096721E-1,6.1571854E-1,7.523025E-2,-5.6693503E-3,1.147317E-2,1.8645767E-2,4.1703396E-2,1.2990543E-2,-1.3736552E-2,-3.5420716E-2,-6.851377E-3,-1.6161455E-2,1.8074842E-1,-3.8176E-2,2.1402998E-2,3.030163E-2,7.611587E-2],"categories":[],"categories_nodes":[],"categories_segments":[],"categories_sizes":[],"default_left":[0,0,0,0,0,0,0,0,0,0,0,0,0,0,0,0,0,0,0,0,0,0,0,0,0,0,0,0,0],"id":39,"left_children":[1,3,5,7,9,11,13,15,17,19,21,23,25,27,-1,-1,-1,-1,-1,-1,-1,-1,-1,-1,-1,-1,-1,-1,-1],"loss_changes":[7.5263513E2,4.7419193E2,4.5882532E2,3.588984E2,1.0534122E2,1.5272504E2,2.3509186E1,5.744896E2,6.858978E1,4.9455513E1,1.0394653E1,1.5394745E2,4.1084595E1,2.5950928E1,0E0,0E0,0E0,0E0,0E0,0E0,0E0,0E0,0E0,0E0,0E0,0E0,0E0,0E0,0E0],"parents":[2147483647,0,0,1,1,2,2,3,3,4,4,5,5,6,6,7,7,8,8,9,9,10,10,11,11,12,12,13,13],"right_children":[2,4,6,8,10,12,14,16,18,20,22,24,26,28,-1,-1,-1,-1,-1,-1,-1,-1,-1,-1,-1,-1,-1,-1,-1],"split_conditions":[4.12E1,6.41E1,1E0,1E0,2.3E1,6.1E1,1E0,1E0,1E0,5.8E0,1E0,1E0,1.215E2,1E0,7.523025E-2,-5.6693503E-3,1.147317E-2,1.8645767E-2,4.1703396E-2,1.2990543E-2,-1.3736552E-2,-3.5420716E-2,-6.851377E-3,-1.6161455E-2,1.8074842E-1,-3.8176E-2,2.1402998E-2,3.030163E-2,7.611587E-2],"split_indices":[5,6,12,16,5,5,1,15,28,5,7,20,10,2,0,0,0,0,0,0,0,0,0,0,0,0,0,0,0],"split_type":[0,0,0,0,0,0,0,0,0,0,0,0,0,0,0,0,0,0,0,0,0,0,0,0,0,0,0,0,0],"sum_hessian":[4.458562E4,3.642973E4,8.155892E3,3.284553E4,3.5841956E3,7.7196626E3,4.3622946E2,2.8197799E4,4.647735E3,2.6094966E3,9.7469916E2,6.130919E3,1.5887438E3,3.669577E2,6.927175E1,1.3513827E4,1.4683971E4,4.1242905E3,5.2344434E2,2.7826776E2,2.3312288E3,9.258981E2,4.880111E1,6.1175854E3,1.3333405E1,1.5465256E3,4.221812E1,3.1527795E2,5.1679745E1],"tree_param":{"num_deleted":"0","num_feature":"36","num_nodes":"29","size_leaf_vector":"1"}},{"base_weights":[-2.0678916E-3,5.683654E-2,-2.7060226E-1,1.18486755E-1,-1.3826822E-1,-3.2452288E-1,6.876215E-1,5.3677493E-1,9.380677E-2,1.6709456E-1,-2.0423427E-1,-2.7442223E-1,-7.675112E-1,9.097083E-1,5.29618E-1,4.606862E-3,4.7349144E-2,5.153413E-3,8.136292E-2,1.7371899E-2,-7.301364E-3,-8.351303E-3,-2.5081035E-2,-6.1060553E-3,-2.4296045E-2,-4.8961423E-2,3.697839E-2,6.453042E-2,4.2914685E-2,-2.4796993E-2,3.5272613E-2],"categories":[],"categories_nodes":[],"categories_segments":[],"categories_sizes":[],"default_left":[0,0,0,0,0,0,0,0,0,0,0,0,0,0,0,0,0,0,0,0,0,0,0,0,0,0,0,0,0,0,0],"id":40,"left_children":[1,3,5,7,9,11,13,15,17,19,21,23,25,27,29,-1,-1,-1,-1,-1,-1,-1,-1,-1,-1,-1,-1,-1,-1,-1,-1],"loss_changes":[7.048509E2,4.395802E2,4.1440314E2,2.8662964E2,1.767984E2,1.6823755E2,1.4514877E1,1.7953363E2,2.6193036E2,5.5174267E1,1.0029608E2,1.5364148E2,5.2235992E1,4.9138336E0,1.4091789E1,0E0,0E0,0E0,0E0,0E0,0E0,0E0,0E0,0E0,0E0,0E0,0E0,0E0,0E0,0E0,0E0],"parents":[2147483647,0,0,1,1,2,2,3,3,4,4,5,5,6,6,7,7,8,8,9,9,10,10,11,11,12,12,13,13,14,14],"right_children":[2,4,6,8,10,12,14,16,18,20,22,24,26,28,30,-1,-1,-1,-1,-1,-1,-1,-1,-1,-1,-1,-1,-1,-1,-1,-1],"split_conditions":[4.12E1,4.71E1,1E0,7.1E0,8E0,6.67E1,8.86E1,2E0,1E0,7.26E1,2.78E1,2.32E1,1.215E2,2.57E1,2E0,4.606862E-3,4.7349144E-2,5.153413E-3,8.136292E-2,1.7371899E-2,-7.301364E-3,-8.351303E-3,-2.5081035E-2,-6.1060553E-3,-2.4296045E-2,-4.8961423E-2,3.697839E-2,6.453042E-2,4.2914685E-2,-2.4796993E-2,3.5272613E-2],"split_indices":[5,6,12,5,5,5,5,9,12,6,5,6,10,6,9,0,0,0,0,0,0,0,0,0,0,0,0,0,0,0,0],"split_type":[0,0,0,0,0,0,0,0,0,0,0,0,0,0,0,0,0,0,0,0,0,0,0,0,0,0,0,0,0,0,0],"sum_hessian":[4.455846E4,3.6543285E4,8.015175E3,2.7769066E4,8.77422E3,7.588803E3,4.2637164E2,1.5459979E3,2.6223068E4,1.5584557E3,7.2157646E3,6.8191924E3,7.69611E2,1.752649E2,2.5110677E2,5.4817505E2,9.978229E2,2.6060688E4,1.6237993E2,1.0944387E3,4.6401694E2,5.5337188E3,1.6820457E3,2.9363992E3,3.882793E3,7.43941E2,2.567007E1,9.215951E1,8.3105385E1,1.425764E1,2.3684912E2],"tree_param":{"num_deleted":"0","num_feature":"36","num_nodes":"31","size_leaf_vector":"1"}},{"base_weights":[-1.6386358E-3,-1.374127E-2,8.380085E-1,-5.1609352E-2,2.2688816E-1,1.0178438E0,4.3619865E-1,-8.597345E-2,3.1496894E-1,3.368752E-1,1.2317251E-1,7.708194E-2,6.6937596E-1,2.58739E-1,9.221215E-1,-1.578859E-2,3.3801175E-3,2.941752E-2,6.790964E-4,1.6947743E-2,4.452955E-2,9.213572E-3,-1.5806723E-2,3.0873252E-2,6.007074E-2,-5.5094473E-3,2.4567856E-2,6.8326406E-2,3.198377E-2],"categories":[],"categories_nodes":[],"categories_segments":[],"categories_sizes":[],"default_left":[0,0,0,0,0,0,0,0,0,0,0,0,0,0,0,0,0,0,0,0,0,0,0,0,0,0,0,0,0],"id":41,"left_children":[1,3,5,7,9,11,13,15,17,19,21,-1,23,25,27,-1,-1,-1,-1,-1,-1,-1,-1,-1,-1,-1,-1,-1,-1],"loss_changes":[4.518653E2,3.9943903E2,4.521176E1,4.771433E2,6.7951965E1,3.965866E1,1.675782E1,8.7312335E2,1.7282376E2,6.3571106E1,3.6098835E1,0E0,9.299438E0,7.739661E0,3.8043823E0,0E0,0E0,0E0,0E0,0E0,0E0,0E0,0E0,0E0,0E0,0E0,0E0,0E0,0E0],"parents":[2147483647,0,0,1,1,2,2,3,3,4,4,5,5,6,6,7,7,8,8,9,9,10,10,12,12,13,13,14,14],"right_children":[2,4,6,8,10,12,14,16,18,20,22,-1,24,26,28,-1,-1,-1,-1,-1,-1,-1,-1,-1,-1,-1,-1,-1,-1],"split_conditions":[1E0,1E0,1E0,1E0,2.95E1,1E0,9.95E1,1E0,3.9E1,1E0,7.26E1,7.708194E-2,1.059E2,5E0,3.11E1,-1.578859E-2,3.3801175E-3,2.941752E-2,6.790964E-4,1.6947743E-2,4.452955E-2,9.213572E-3,-1.5806723E-2,3.0873252E-2,6.007074E-2,-5.5094473E-3,2.4567856E-2,6.8326406E-2,3.198377E-2],"split_indices":[12,16,4,18,6,3,10,15,6,28,6,0,10,9,6,0,0,0,0,0,0,0,0,0,0,0,0,0,0],"split_type":[0,0,0,0,0,0,0,0,0,0,0,0,0,0,0,0,0,0,0,0,0,0,0,0,0,0,0,0,0],"sum_hessian":[4.4464297E4,4.3833465E4,6.3082983E2,3.7873984E4,5.95948E3,4.3472827E2,1.9610156E2,3.462857E4,3.2454155E3,2.8912043E3,3.0682756E3,2.4467249E2,1.9005579E2,1.4476549E2,5.1336067E1,1.54246E4,1.920397E4,2.0570771E3,1.1883384E3,2.550478E3,3.4072644E2,2.84525E3,2.2302547E2,1.3132796E2,5.8727818E1,4.364497E1,1.0112052E2,3.1736326E1,1.9599741E1],"tree_param":{"num_deleted":"0","num_feature":"36","num_nodes":"29","size_leaf_vector":"1"}},{"base_weights":[-3.4819942E-3,-1.5095463E-2,8.2156765E-1,-4.687113E-2,2.904278E-1,9.97939E-1,4.6493405E-1,-8.073962E-2,3.195955E-1,3.8598153E-1,7.942824E-2,7.597461E-2,6.725183E-1,3.3674458E-1,8.1503236E-1,-1.3693593E-2,2.9901168E-3,2.6570149E-2,-9.229263E-3,2.6325842E-2,2.1527933E-3,2.074322E-2,1.6346353E-3,3.1355787E-2,5.861504E-2,2.8545545E-2,7.4184756E-3,3.1290807E-2,6.2019702E-2],"categories":[],"categories_nodes":[],"categories_segments":[],"categories_sizes":[],"default_left":[0,0,0,0,0,0,0,0,0,0,0,0,0,0,0,0,0,0,0,0,0,0,0,0,0,0,0,0,0],"id":42,"left_children":[1,3,5,7,9,11,13,15,17,19,21,-1,23,25,27,-1,-1,-1,-1,-1,-1,-1,-1,-1,-1,-1,-1,-1,-1],"loss_changes":[4.2522864E2,4.248737E2,3.8283417E1,4.920381E2,8.309412E1,3.506012E1,8.957668E0,6.988538E2,1.9574539E2,5.241928E1,1.7866425E1,0E0,8.069092E0,4.4524364E0,2.953827E0,0E0,0E0,0E0,0E0,0E0,0E0,0E0,0E0,0E0,0E0,0E0,0E0,0E0,0E0],"parents":[2147483647,0,0,1,1,2,2,3,3,4,4,5,5,6,6,7,7,8,8,9,9,10,10,12,12,13,13,14,14],"right_children":[2,4,6,8,10,12,14,16,18,20,22,-1,24,26,28,-1,-1,-1,-1,-1,-1,-1,-1,-1,-1,-1,-1,-1,-1],"split_conditions":[1E0,1E0,1E0,1E0,5.22E1,1E0,9.95E1,1E0,1E0,1E0,1.47E1,7.597461E-2,1.017E2,1E1,-4.8E1,-1.3693593E-2,2.9901168E-3,2.6570149E-2,-9.229263E-3,2.6325842E-2,2.1527933E-3,2.074322E-2,1.6346353E-3,3.1355787E-2,5.861504E-2,2.8545545E-2,7.4184756E-3,3.1290807E-2,6.2019702E-2],"split_indices":[12,17,4,20,10,3,10,15,4,4,6,0,10,14,13,0,0,0,0,0,0,0,0,0,0,0,0,0,0],"split_type":[0,0,0,0,0,0,0,0,0,0,0,0,0,0,0,0,0,0,0,0,0,0,0,0,0,0,0,0,0],"sum_hessian":[4.4377008E4,4.3761992E4,6.150158E2,3.9640105E4,4.1218857E3,4.1030386E2,2.0471194E2,3.628725E4,3.3528525E3,2.8365088E3,1.2853771E3,2.2330286E2,1.87001E2,1.5128162E2,5.3430325E1,1.7039758E4,1.9247494E4,2.6603672E3,6.9248535E2,2.464673E3,3.7183566E2,2.0969525E2,1.0756818E3,1.2711265E2,5.9888367E1,9.08104E1,6.0471222E1,2.4253878E1,2.9176445E1],"tree_param":{"num_deleted":"0","num_feature":"36","num_nodes":"29","size_leaf_vector":"1"}},{"base_weights":[-4.7633694E-3,6.387657E-2,-2.1239497E-1,4.342559E-2,6.459061E-1,-3.420034E-1,1.2327685E-1,-3.1179064E-3,3.3012122E-1,7.9664385E-1,4.3915352E-1,-3.944187E-1,5.913804E-1,1.5560047E-1,-6.6265965E-1,-1.0305515E-2,7.929709E-3,2.4098951E-2,1.0364728E-2,4.5072973E-2,8.541853E-2,1.643448E-2,4.166557E-2,-2.8725935E-2,-2.491985E-3,4.962299E-2,1.1532121E-2,1.4787025E-2,-6.3419325E-4,-4.378275E-2,-1.1022409E-2],"categories":[],"categories_nodes":[],"categories_segments":[],"categories_sizes":[],"default_left":[0,0,0,0,0,0,0,0,0,0,0,0,0,0,0,0,0,0,0,0,0,0,0,0,0,0,0,0,0,0,0],"id":43,"left_children":[1,3,5,7,9,11,13,15,17,19,21,23,25,27,29,-1,-1,-1,-1,-1,-1,-1,-1,-1,-1,-1,-1,-1,-1,-1,-1],"loss_changes":[6.317614E2,3.9652362E2,4.7919205E2,4.2947552E2,3.4891876E1,3.8897058E2,7.8059784E1,6.3175476E2,5.0533478E1,1.7523193E1,2.0016747E1,2.2392834E2,3.9623245E1,4.4510765E1,3.7650528E0,0E0,0E0,0E0,0E0,0E0,0E0,0E0,0E0,0E0,0E0,0E0,0E0,0E0,0E0,0E0,0E0],"parents":[2147483647,0,0,1,1,2,2,3,3,4,4,5,5,6,6,7,7,8,8,9,9,10,10,11,11,12,12,13,13,14,14],"right_children":[2,4,6,8,10,12,14,16,18,20,22,24,26,28,30,-1,-1,-1,-1,-1,-1,-1,-1,-1,-1,-1,-1,-1,-1,-1,-1],"split_conditions":[3.45E1,1E0,1E0,1E0,2.86E1,1E0,6.8E1,1E0,2.56E1,2.6E1,4.7E1,1E0,1E0,5.44E1,1.467E2,-1.0305515E-2,7.929709E-3,2.4098951E-2,1.0364728E-2,4.5072973E-2,8.541853E-2,1.643448E-2,4.166557E-2,-2.8725935E-2,-2.491985E-3,4.962299E-2,1.1532121E-2,1.4787025E-2,-6.3419325E-4,-4.378275E-2,-1.1022409E-2],"split_indices":[5,17,17,16,5,12,5,15,5,9,13,16,4,5,5,0,0,0,0,0,0,0,0,0,0,0,0,0,0,0,0],"split_type":[0,0,0,0,0,0,0,0,0,0,0,0,0,0,0,0,0,0,0,0,0,0,0,0,0,0,0,0,0,0,0],"sum_hessian":[4.432652E4,3.3314074E4,1.1012447E4,3.2184277E4,1.1297958E3,7.9448076E3,3.0676401E3,2.7689953E4,4.4943257E3,6.5176105E2,4.780347E2,7.5229263E3,4.218815E2,2.94723E3,1.20410225E2,1.232511E4,1.5364842E4,3.0888691E3,1.4054565E3,6.097791E2,4.198191E1,2.9144604E2,1.8658864E2,6.071384E3,1.4515425E3,2.6459586E2,1.5728564E2,1.9051489E3,1.0420809E3,1.0516385E2,1.5246376E1],"tree_param":{"num_deleted":"0","num_feature":"36","num_nodes":"31","size_leaf_vector":"1"}},{"base_weights":[-4.379008E-3,1.2335991E-1,-1.16699524E-1,1.0379426E-1,6.766766E-1,-1.8233705E-1,2.0306812E-1,6.121686E-1,8.308131E-2,1.1716316E0,5.43755E-1,-2.679535E-1,1.3255455E-1,3.862093E-1,5.247146E-3,4.409189E-2,-5.550432E-2,-8.96638E-3,8.261194E-3,1.990053E-2,8.479599E-2,3.9099302E-2,-5.3750603E-3,-4.417197E-2,-1.7120289E-3,1.1959851E-2,-2.1046456E-2,3.612792E-2,1.6170993E-2,2.9081402E-3,-3.3976737E-2],"categories":[],"categories_nodes":[],"categories_segments":[],"categories_sizes":[],"default_left":[0,0,0,0,0,0,0,0,0,0,0,0,0,0,0,0,0,0,0,0,0,0,0,0,0,0,0,0,0,0,0],"id":44,"left_children":[1,3,5,7,9,11,13,15,17,19,21,23,25,27,29,-1,-1,-1,-1,-1,-1,-1,-1,-1,-1,-1,-1,-1,-1,-1,-1],"loss_changes":[6.352914E2,2.242143E2,4.9455438E2,2.1066187E2,4.5901215E1,5.270731E2,1.4538948E2,1.484089E2,2.4416364E2,2.9749374E1,3.8292343E1,1.7231033E3,1.349674E2,5.2343903E1,4.7709232E1,0E0,0E0,0E0,0E0,0E0,0E0,0E0,0E0,0E0,0E0,0E0,0E0,0E0,0E0,0E0,0E0],"parents":[2147483647,0,0,1,1,2,2,3,3,4,4,5,5,6,6,7,7,8,8,9,9,